; ModuleID = 'svm_utils.c'
source_filename = "svm_utils.c"
target datalayout = "e-m:e-p270:32:32-p271:32:32-p272:64:64-i64:64-f80:128-n8:16:32:64-S128"
target triple = "x86_64-unknown-linux-gnu"

%struct.svm_model = type { %struct.svm_parameter, i32, i32, %struct.svm_node**, double**, double*, double*, double*, i32*, i32*, i32*, i32 }
%struct.svm_parameter = type { i32, i32, i32, double, double, double, double, double, i32, i32*, double*, double, double, i32, i32 }
%struct.svm_node = type { i32, double }

@.str = private unnamed_addr constant [60559 x i8] c"svm_type nu_svr\0Akernel_type rbf\0Agamma 6\0Anr_class 2\0Atotal_sv 1087\0Arho 0.107628\0ASV\0A-0.2927223412287951 1:0.2 2:0.2 3:0.4 4:0 \0A-0.2726129259719185 1:0.2 2:0.2 3:0.5 4:0 \0A-0.4429394065483267 1:0.2 2:0.2 3:0.6 4:0 \0A0.3450198571957915 1:0.2 2:0.2 3:0.8 4:0 \0A1 1:0.2 2:0.25 3:0.2 4:0 \0A0.9846600387002246 1:0.2 2:0.25 3:0.5 4:0 \0A0.4361932664094919 1:0.2 2:0.3 3:0.6 4:0 \0A0.08551999173355709 1:0.2 2:0.35 3:0.8 4:0 \0A-0.459481107722125 1:0.2 2:0.45 3:0.5 4:0 \0A-0.1858952118588858 1:0.2 2:0.45 3:0.7 4:0 \0A-0.7957932783829218 1:0.2 2:0.55 3:0.2 4:0 \0A0.201173403457083 1:0.2 2:0.65 3:0.2 4:0 \0A0.8261023125933521 1:0.2 2:0.65 3:0.5 4:0 \0A0.4516612607609173 1:0.2 2:0.7 3:0.4 4:0 \0A-0.2168200098537659 1:0.2 2:0.8 3:0.4 4:0 \0A0.5314932300947524 1:0.2 2:0.8 3:0.8 4:0 \0A0.1894221561591226 1:0.22 2:0.20512821 3:0.18181818 4:0 \0A0.04669279360300833 1:0.22 2:0.25641026 3:0.18181818 4:0 \0A0.05442681853246129 1:0.22 2:0.35897436 3:0.81818182 4:0 \0A0.09890021983512577 1:0.22 2:0.48717949 3:0.54545455 4:0 \0A0.2686554290098279 1:0.22 2:0.48717949 3:0.81818182 4:0 \0A1 1:0.22 2:0.64102564 3:0.18181818 4:0 \0A0.1405848790116045 1:0.22 2:0.69230769 3:0.18181818 4:0 \0A-0.5070959537201287 1:0.22 2:0.79487179 3:0.54545455 4:0 \0A-0.2040998984440571 1:0.22 2:0.79487179 3:0.63636364 4:0 \0A-0.277322771076097 1:0.26 2:0.18918919 3:0.76923077 4:0 \0A-0.5122670878026421 1:0.26 2:0.81081081 3:0.23076923 4:0 \0A-0.003446143251586718 1:0.26 2:0.81081081 3:0.30769231 4:0 \0A-0.006051421981500459 1:0.26 2:0.81081081 3:0.69230769 4:0 \0A-0.01320777229878266 1:0.28 2:0.19444444 3:0.71428571 4:0 \0A-0.4538142175974276 1:0.28 2:0.30555556 3:0.21428571 4:0 \0A0.0140336472877628 1:0.28 2:0.36111111 3:0.21428571 4:0 \0A0.0522868337454891 1:0.28 2:0.36111111 3:0.35714286 4:0 \0A0.1852481060118741 1:0.28 2:0.36111111 3:0.42857143 4:0 \0A-0.4358393994624578 1:0.28 2:0.36111111 3:0.57142857 4:0 \0A-0.2343703447951519 1:0.3 2:0.2 3:0.8 4:0 \0A-0.9597395476970447 1:0.3 2:0.25714286 3:0.26666667 4:0 \0A-0.5480748115196359 1:0.3 2:0.71428571 3:0.8 4:0 \0A-0.1966895021798862 1:0.3 2:0.74285714 3:0.2 4:0 \0A-0.986179782297503 1:0.32 2:0.26470588 3:0.1875 4:0 \0A0.1264535134306515 1:0.32 2:0.44117647 3:0.1875 4:0 \0A1 1:0.32 2:0.44117647 3:0.375 4:0 \0A-0.893806904379465 1:0.32 2:0.5 3:0.4375 4:0 \0A-0.7931835709843101 1:0.32 2:0.58823529 3:0.375 4:0 \0A-0.8163156631224802 1:0.32 2:0.70588235 3:0.375 4:0 \0A-0.003314954359327795 1:0.32 2:0.79411765 3:0.1875 4:0 \0A-0.1456865474887121 1:0.32 2:0.79411765 3:0.8125 4:0 \0A0.5610324283222747 1:0.36 2:0.1875 3:0.55555556 4:0 \0A-0.04161722392425331 1:0.36 2:0.25 3:0.72222222 4:0 \0A-1 1:0.36 2:0.3125 3:0.44444444 4:0 \0A-0.5195901595075548 1:0.36 2:0.40625 3:0.77777778 4:0 \0A0.2275848114312543 1:0.36 2:0.4375 3:0.55555556 4:0 \0A-0.5854291383914952 1:0.36 2:0.65625 3:0.22222222 4:0 \0A0.255909726051372 1:0.36 2:0.75 3:0.38888889 4:0 \0A1 1:0.36 2:0.8125 3:0.38888889 4:0 \0A0.3295257625292804 1:0.38 2:0.19354839 3:0.36842105 4:0 \0A-0.004752910545565455 1:0.38 2:0.29032258 3:0.57894737 4:0 \0A1 1:0.38 2:0.35483871 3:0.31578947 4:0 \0A0.3159226403578163 1:0.38 2:0.48387097 3:0.36842105 4:0 \0A-0.134250099024484 1:0.38 2:0.5483871 3:0.26315789 4:0 \0A0.04990819092532525 1:0.4 2:0.2 3:0.2 4:0 \0A0.04017129911346561 1:0.4 2:0.2 3:0.45 4:0 \0A-0.08021509680003584 1:0.4 2:0.76666667 3:0.8 4:0 \0A0.02158143681261617 1:0.4 2:0.8 3:0.5 4:0 \0A0.3958409337285195 1:0.42 2:0.34482759 3:0.23809524 4:0 \0A0.04041156896377561 1:0.42 2:0.4137931 3:0.28571429 4:0 \0A0.1115032812474313 1:0.42 2:0.4137931 3:0.47619048 4:0 \0A0.2759956991939458 1:0.42 2:0.55172414 3:0.47619048 4:0 \0A-0.07685550118721433 1:0.42 2:0.55172414 3:0.80952381 4:0 \0A-0.01256651815709847 1:0.42 2:0.68965517 3:0.38095238 4:0 \0A0.7207276317326755 1:0.42 2:0.75862069 3:0.23809524 4:0 \0A0.23452088756847 1:0.42 2:0.75862069 3:0.66666667 4:0 \0A0.02788924007552103 1:0.42 2:0.79310345 3:0.61904762 4:0 \0A0.604057819756918 1:0.46 2:0.18518519 3:0.2173913 4:0 \0A0.247380746046661 1:0.46 2:0.18518519 3:0.7826087 4:0 \0A0.08997914831911716 1:0.46 2:0.25925926 3:0.7826087 4:0 \0A0.02932569922822849 1:0.46 2:0.44444444 3:0.34782609 4:0 \0A0.1316585151236409 1:0.46 2:0.59259259 3:0.56521739 4:0 \0A0.1193027227882259 1:0.46 2:0.59259259 3:0.69565217 4:0 \0A0.02072600162046559 1:0.46 2:0.66666667 3:0.47826087 4:0 \0A0.1272669594189013 1:0.46 2:0.7037037 3:0.73913043 4:0 \0A0.2084687245068163 1:0.48 2:0.19230769 3:0.70833333 4:0 \0A0.002138491324302674 1:0.48 2:0.34615385 3:0.58333333 4:0 \0A0.7484445265964226 1:0.48 2:0.5 3:0.45833333 4:0 \0A0.4116408785512746 1:0.48 2:0.65384615 3:0.20833333 4:0 \0A0.02368313464240131 1:0.48 2:0.65384615 3:0.58333333 4:0 \0A0.09027199755744481 1:0.48 2:0.80769231 3:0.58333333 4:0 \0A0.00171413298196679 1:0.5 2:0.2 3:0.64 4:0 \0A1 1:0.5 2:0.32 3:0.72 4:0 \0A0.0227170077507995 1:0.5 2:0.36 3:0.4 4:0 \0A0.7430323769767297 1:0.5 2:0.4 3:0.2 4:0 \0A0.4282042375575376 1:0.5 2:0.44 3:0.72 4:0 \0A0.7656604063598283 1:0.5 2:0.72 3:0.8 4:0 \0A0.2609457667122108 1:0.5 2:0.8 3:0.64 4:0 \0A0.2094594877840361 1:0.52 2:0.20833333 3:0.19230769 4:0 \0A0.05380375239312347 1:0.52 2:0.20833333 3:0.76923077 4:0 \0A-0.4325084912736846 1:0.52 2:0.25 3:0.61538462 4:0 \0A-0.0793380554337809 1:0.52 2:0.33333333 3:0.46153846 4:0 \0A-1 1:0.56 2:0.31818182 3:0.28571429 4:0 \0A0.01668823635096308 1:0.56 2:0.63636364 3:0.35714286 4:0 \0A-0.02738497985877556 1:0.58 2:0.28571429 3:0.48275862 4:0 \0A-0.10680638899594 1:0.58 2:0.28571429 3:0.5862069 4:0 \0A-0.01250723377023471 1:0.58 2:0.57142857 3:0.5862069 4:0 \0A0.1106674059840921 1:0.58 2:0.66666667 3:0.20689655 4:0 \0A-0.1149086920967255 1:0.58 2:0.66666667 3:0.55172414 4:0 \0A-0.2613064173282288 1:0.58 2:0.71428571 3:0.48275862 4:0 \0A-0.9687293441993543 1:0.58 2:0.71428571 3:0.5862069 4:0 \0A-1 1:0.58 2:0.80952381 3:0.4137931 4:0 \0A0.0536759694016334 1:0.6 2:0.2 3:0.36666667 4:0 \0A-0.04285819561466013 1:0.6 2:0.2 3:0.6 4:0 \0A-0.4389684809502345 1:0.6 2:0.25 3:0.4 4:0 \0A-0.1867753580098935 1:0.6 2:0.25 3:0.53333333 4:0 \0A-1 1:0.6 2:0.3 3:0.5 4:0 \0A-1 1:0.6 2:0.35 3:0.53333333 4:0 \0A0.0102195364872924 1:0.6 2:0.45 3:0.2 4:0 \0A-0.1056748551941598 1:0.6 2:0.5 3:0.53333333 4:0 \0A-0.03941368050015077 1:0.6 2:0.7 3:0.36666667 4:0 \0A0.01122846326181984 1:0.62 2:0.21052632 3:0.48387097 4:0 \0A-0.1093764012354553 1:0.62 2:0.31578947 3:0.25806452 4:0 \0A-0.3452523390386049 1:0.62 2:0.36842105 3:0.25806452 4:0 \0A0.001050308109887437 1:0.62 2:0.36842105 3:0.35483871 4:0 \0A-0.06810597824396332 1:0.62 2:0.52631579 3:0.61290323 4:0 \0A-0.4199678265352947 1:0.62 2:0.63157895 3:0.35483871 4:0 \0A-0.44625697080628 1:0.62 2:0.73684211 3:0.48387097 4:0 \0A-0.01358287824488296 1:0.62 2:0.78947368 3:0.4516129 4:0 \0A-1 1:0.66 2:0.23529412 3:0.78787879 4:0 \0A-0.4954658033850093 1:0.66 2:0.41176471 3:0.3030303 4:0 \0A-0.4684521966805765 1:0.66 2:0.64705882 3:0.60606061 4:0 \0A-0.2793322948198178 1:0.66 2:0.76470588 3:0.3030303 4:0 \0A0.2849506022237858 1:0.66 2:0.82352941 3:0.45454545 4:0 \0A0.2554007801619184 1:0.68 2:0.1875 3:0.41176471 4:0 \0A0.1297831896837497 1:0.68 2:0.25 3:0.41176471 4:0 \0A-0.03753335664157343 1:0.68 2:0.25 3:0.70588235 4:0 \0A-0.02608031772002552 1:0.68 2:0.4375 3:0.26470588 4:0 \0A-1 1:0.68 2:0.6875 3:0.26470588 4:0 \0A-0.02281343883392093 1:0.68 2:0.75 3:0.26470588 4:0 \0A0.07151312712204054 1:0.68 2:0.75 3:0.55882353 4:0 \0A-1 1:0.68 2:0.75 3:0.64705882 4:0 \0A0.6163938656707675 1:0.68 2:0.8125 3:0.41176471 4:0 \0A0.05482582811772205 1:0.68 2:0.8125 3:0.64705882 4:0 \0A-0.1252295600791277 1:0.7 2:0.26666667 3:0.25714286 4:0 \0A-0.1454166861786485 1:0.7 2:0.46666667 3:0.65714286 4:0 \0A-0.1324013043130206 1:0.7 2:0.73333333 3:0.25714286 4:0 \0A-0.9445272199786531 1:0.7 2:0.73333333 3:0.8 4:0 \0A1 1:0.72 2:0.21428571 3:0.44444444 4:0 \0A1 1:0.72 2:0.21428571 3:0.5 4:0 \0A0.9626047312933887 1:0.72 2:0.28571429 3:0.44444444 4:0 \0A-0.4512578222546959 1:0.72 2:0.28571429 3:0.80555556 4:0 \0A0.05137185671884451 1:0.72 2:0.5 3:0.38888889 4:0 \0A0.02753015992226191 1:0.72 2:0.5 3:0.44444444 4:0 \0A1 1:0.72 2:0.57142857 3:0.36111111 4:0 \0A0.7224161439688335 1:0.72 2:0.64285714 3:0.44444444 4:0 \0A-0.4538030422695079 1:0.72 2:0.71428571 3:0.25 4:0 \0A0.9952961794932015 1:0.72 2:0.71428571 3:0.44444444 4:0 \0A1 1:0.72 2:0.78571429 3:0.5 4:0 \0A1 1:0.72 2:0.78571429 3:0.55555556 4:0 \0A-1 1:0.76 2:0.16666667 3:0.28947368 4:0 \0A0.7660150530906951 1:0.76 2:0.16666667 3:0.44736842 4:0 \0A1 1:0.76 2:0.25 3:0.5 4:0 \0A0.8071418590509907 1:0.76 2:0.25 3:0.65789474 4:0 \0A1 1:0.76 2:0.33333333 3:0.39473684 4:0 \0A1 1:0.76 2:0.33333333 3:0.44736842 4:0 \0A1 1:0.76 2:0.33333333 3:0.5 4:0 \0A0.003702315572620042 1:0.76 2:0.41666667 3:0.60526316 4:0 \0A1 1:0.76 2:0.66666667 3:0.5 4:0 \0A1 1:0.76 2:0.66666667 3:0.60526316 4:0 \0A1 1:0.76 2:0.75 3:0.5 4:0 \0A0.7595359045293272 1:0.76 2:0.83333333 3:0.21052632 4:0 \0A1 1:0.76 2:0.83333333 3:0.39473684 4:0 \0A0.1097435588968492 1:0.76 2:0.83333333 3:0.5 4:0 \0A0.08137302450917316 1:0.78 2:0.18181818 3:0.20512821 4:0 \0A1 1:0.78 2:0.18181818 3:0.74358974 4:0 \0A1 1:0.78 2:0.27272727 3:0.46153846 4:0 \0A0.3829037053297411 1:0.78 2:0.45454545 3:0.79487179 4:0 \0A0.299550505687713 1:0.78 2:0.54545455 3:0.69230769 4:0 \0A0.044287210520343 1:0.78 2:0.54545455 3:0.79487179 4:0 \0A-0.5366216412686633 1:0.78 2:0.63636364 3:0.30769231 4:0 \0A0.5647571890765837 1:0.78 2:0.72727273 3:0.41025641 4:0 \0A0.01149507040932693 1:0.78 2:0.72727273 3:0.64102564 4:0 \0A-0.04153684623206437 1:0.78 2:0.81818182 3:0.53846154 4:0 \0A-0.007108344628630045 1:0.78 2:0.81818182 3:0.64102564 4:0 \0A0.7459296102482841 1:0.78 2:0.81818182 3:0.74358974 4:0 \0A1 1:0.8 2:0.2 3:0.2 4:0 \0A-0.6031520655050495 1:0.8 2:0.2 3:0.3 4:0 \0A-1 1:0.8 2:0.2 3:0.4 4:0 \0A-0.007590751973352182 1:0.8 2:0.2 3:0.45 4:0 \0A-1 1:0.8 2:0.2 3:0.5 4:0 \0A-1 1:0.8 2:0.2 3:0.55 4:0 \0A-1 1:0.8 2:0.2 3:0.6 4:0 \0A0.2140711381845247 1:0.8 2:0.2 3:0.75 4:0 \0A0.2914211623767319 1:0.8 2:0.2 3:0.8 4:0 \0A0.3422740526001184 1:0.8 2:0.3 3:0.2 4:0 \0A-1 1:0.8 2:0.3 3:0.45 4:0 \0A-0.7318598706719721 1:0.8 2:0.3 3:0.6 4:0 \0A0.002418582009178758 1:0.8 2:0.3 3:0.75 4:0 \0A-1 1:0.8 2:0.4 3:0.35 4:0 \0A-0.005074312666051498 1:0.8 2:0.4 3:0.55 4:0 \0A0.2120811616220415 1:0.8 2:0.5 3:0.2 4:0 \0A-0.1458147825770993 1:0.8 2:0.5 3:0.3 4:0 \0A-0.1408059540929924 1:0.8 2:0.5 3:0.4 4:0 \0A-1 1:0.8 2:0.5 3:0.5 4:0 \0A0.2020908287310789 1:0.8 2:0.5 3:0.7 4:0 \0A-0.03836311858537843 1:0.8 2:0.6 3:0.5 4:0 \0A-0.05208260147723191 1:0.8 2:0.6 3:0.55 4:0 \0A-1 1:0.8 2:0.6 3:0.6 4:0 \0A1 1:0.8 2:0.7 3:0.2 4:0 \0A-0.002616444284925962 1:0.8 2:0.7 3:0.55 4:0 \0A0.03336205896390394 1:0.8 2:0.7 3:0.75 4:0 \0A-1 1:0.8 2:0.8 3:0.35 4:0 \0A-1 1:0.8 2:0.8 3:0.4 4:0 \0A-1 1:0.8 2:0.8 3:0.45 4:0 \0A-1 1:0.8 2:0.8 3:0.5 4:0 \0A-1 1:0.8 2:0.8 3:0.6 4:0 \0A0.6258957493805375 1:0.8 2:0.8 3:0.8 4:0 \0A-0.05890383128415338 1:0.2 2:0.2 3:0.4 4:0.14285714 \0A0.03647635472077591 1:0.2 2:0.25 3:0.8 4:0.14285714 \0A0.1330384093878337 1:0.2 2:0.3 3:0.6 4:0.14285714 \0A-0.4208995683100714 1:0.2 2:0.45 3:0.2 4:0.14285714 \0A-0.557073487577243 1:0.2 2:0.45 3:0.55 4:0.14285714 \0A-0.05778065221265551 1:0.2 2:0.5 3:0.2 4:0.14285714 \0A-0.0821523965757199 1:0.2 2:0.5 3:0.7 4:0.14285714 \0A-0.01106357914653276 1:0.2 2:0.5 3:0.75 4:0.14285714 \0A0.2208509066786977 1:0.2 2:0.7 3:0.2 4:0.14285714 \0A0.004213129842881305 1:0.2 2:0.7 3:0.65 4:0.14285714 \0A0.1444509344431197 1:0.2 2:0.7 3:0.7 4:0.14285714 \0A-0.007265625147452436 1:0.23 2:0.19480519 3:0.34782609 4:0.14285714 \0A-0.007697160588386425 1:0.23 2:0.80519481 3:0.47826087 4:0.14285714 \0A-0.1333712851609656 1:0.28 2:0.25 3:0.21428571 4:0.14285714 \0A0.05187998291430889 1:0.28 2:0.40277778 3:0.28571429 4:0.14285714 \0A-0.2538406552302359 1:0.28 2:0.80555556 3:0.21428571 4:0.14285714 \0A-0.1271073815193153 1:0.3 2:0.2 3:0.8 4:0.14285714 \0A-0.08926749735020217 1:0.3 2:0.25714286 3:0.76666667 4:0.14285714 \0A-0.4203489420977766 1:0.3 2:0.8 3:0.76666667 4:0.14285714 \0A-0.2747402138637966 1:0.33 2:0.25373134 3:0.21212121 4:0.14285714 \0A-0.1393985966029691 1:0.33 2:0.25373134 3:0.63636364 4:0.14285714 \0A-0.03086373130647553 1:0.33 2:0.25373134 3:0.78787879 4:0.14285714 \0A-0.2729129562834839 1:0.33 2:0.40298507 3:0.75757576 4:0.14285714 \0A-0.1025205733520323 1:0.33 2:0.74626866 3:0.78787879 4:0.14285714 \0A-0.5839198127710407 1:0.35 2:0.6 3:0.2 4:0.14285714 \0A0.1074730390951445 1:0.38 2:0.80645161 3:0.39473684 4:0.14285714 \0A0.3552745806839843 1:0.38 2:0.80645161 3:0.60526316 4:0.14285714 \0A0.01126243238999126 1:0.43 2:0.40350877 3:0.48837209 4:0.14285714 \0A0.04038161021121418 1:0.43 2:0.80701754 3:0.69767442 4:0.14285714 \0A0.2644052442057925 1:0.45 2:0.34545455 3:0.48888889 4:0.14285714 \0A0.5316143238083944 1:0.45 2:0.4 3:0.55555556 4:0.14285714 \0A0.153671635506366 1:0.45 2:0.65454545 3:0.44444444 4:0.14285714 \0A0.001853029148417819 1:0.45 2:0.65454545 3:0.6 4:0.14285714 \0A0.003474698564137756 1:0.48 2:0.80769231 3:0.70833333 4:0.14285714 \0A0.04543394257623733 1:0.5 2:0.2 3:0.8 4:0.14285714 \0A0.004201899525712433 1:0.5 2:0.54 3:0.6 4:0.14285714 \0A0.0338300334523025 1:0.5 2:0.66 3:0.76 4:0.14285714 \0A0.003604719473749735 1:0.5 2:0.8 3:0.3 4:0.14285714 \0A-0.08350786336560617 1:0.53 2:0.25531915 3:0.30188679 4:0.14285714 \0A0.005826885062962134 1:0.55 2:0.4 3:0.8 4:0.14285714 \0A0.01275942950410902 1:0.55 2:0.64444444 3:0.2 4:0.14285714 \0A-0.2646298131150417 1:0.55 2:0.71111111 3:0.49090909 4:0.14285714 \0A0.08041238064858627 1:0.55 2:0.71111111 3:0.8 4:0.14285714 \0A-0.02835087907106976 1:0.58 2:0.26190476 3:0.55172414 4:0.14285714 \0A-0.4387425916769603 1:0.58 2:0.30952381 3:0.55172414 4:0.14285714 \0A0.1919667661844888 1:0.58 2:0.35714286 3:0.75862069 4:0.14285714 \0A-1 1:0.58 2:0.76190476 3:0.5 4:0.14285714 \0A-0.1118421025622999 1:0.6 2:0.25 3:0.5 4:0.14285714 \0A-0.5397389560549869 1:0.6 2:0.3 3:0.5 4:0.14285714 \0A-0.1785796450980187 1:0.6 2:0.75 3:0.3 4:0.14285714 \0A-0.02549557919331509 1:0.6 2:0.8 3:0.5 4:0.14285714 \0A-0.1029820350882626 1:0.63 2:0.18918919 3:0.25396825 4:0.14285714 \0A-0.4697941061773594 1:0.63 2:0.18918919 3:0.6031746 4:0.14285714 \0A-0.4001830643737279 1:0.63 2:0.24324324 3:0.65079365 4:0.14285714 \0A-0.1416780168834583 1:0.63 2:0.35135135 3:0.25396825 4:0.14285714 \0A-0.4338506307544635 1:0.63 2:0.75675676 3:0.6031746 4:0.14285714 \0A-0.04097893986667835 1:0.65 2:0.34285714 3:0.6 4:0.14285714 \0A-0.3087974444328873 1:0.65 2:0.65714286 3:0.55384615 4:0.14285714 \0A-0.377614746078065 1:0.65 2:0.74285714 3:0.49230769 4:0.14285714 \0A-0.00772762918944356 1:0.68 2:0.1875 3:0.25 4:0.14285714 \0A-0.369728605517054 1:0.68 2:0.25 3:0.20588235 4:0.14285714 \0A-0.004000501889438193 1:0.68 2:0.34375 3:0.70588235 4:0.14285714 \0A-0.07274170034356166 1:0.68 2:0.6875 3:0.25 4:0.14285714 \0A-0.8184396606503874 1:0.68 2:0.75 3:0.20588235 4:0.14285714 \0A-0.1363872683894876 1:0.68 2:0.8125 3:0.79411765 4:0.14285714 \0A-1 1:0.7 2:0.2 3:0.25714286 4:0.14285714 \0A-0.03118028369527123 1:0.7 2:0.2 3:0.75714286 4:0.14285714 \0A-0.02181363186270414 1:0.7 2:0.26666667 3:0.2 4:0.14285714 \0A-0.1113302533497955 1:0.73 2:0.18518519 3:0.20547945 4:0.14285714 \0A1 1:0.73 2:0.25925926 3:0.45205479 4:0.14285714 \0A-0.03442737834664072 1:0.73 2:0.2962963 3:0.24657534 4:0.14285714 \0A-0.4178121191901863 1:0.73 2:0.33333333 3:0.79452055 4:0.14285714 \0A0.9528580345965603 1:0.73 2:0.7037037 3:0.45205479 4:0.14285714 \0A-0.2024630768603559 1:0.73 2:0.74074074 3:0.79452055 4:0.14285714 \0A1 1:0.75 2:0.24 3:0.4 4:0.14285714 \0A0.1244479011966203 1:0.75 2:0.24 3:0.6 4:0.14285714 \0A-0.002202590904183391 1:0.75 2:0.24 3:0.8 4:0.14285714 \0A-0.4228940084880581 1:0.75 2:0.32 3:0.25333333 4:0.14285714 \0A0.01217370372007936 1:0.75 2:0.32 3:0.34666667 4:0.14285714 \0A-0.001694578380018039 1:0.75 2:0.36 3:0.25333333 4:0.14285714 \0A0.01572921427924467 1:0.75 2:0.44 3:0.4 4:0.14285714 \0A0.04952274628581792 1:0.75 2:0.72 3:0.4 4:0.14285714 \0A1 1:0.75 2:0.76 3:0.45333333 4:0.14285714 \0A0.9407620893274501 1:0.75 2:0.76 3:0.54666667 4:0.14285714 \0A0.9159871506295172 1:0.75 2:0.8 3:0.45333333 4:0.14285714 \0A-0.4292340325390916 1:0.75 2:0.8 3:0.8 4:0.14285714 \0A-0.1660503683447014 1:0.78 2:0.18181818 3:0.29487179 4:0.14285714 \0A0.4084556146085806 1:0.78 2:0.40909091 3:0.65384615 4:0.14285714 \0A-1 1:0.78 2:0.81818182 3:0.44871795 4:0.14285714 \0A0.4081461388888754 1:0.8 2:0.2 3:0.2 4:0.14285714 \0A-0.1138377046011816 1:0.8 2:0.2 3:0.35 4:0.14285714 \0A-0.08204833433519138 1:0.8 2:0.2 3:0.4 4:0.14285714 \0A-1 1:0.8 2:0.2 3:0.45 4:0.14285714 \0A-0.002485088614037121 1:0.8 2:0.2 3:0.5 4:0.14285714 \0A-1 1:0.8 2:0.2 3:0.55 4:0.14285714 \0A0.2402871418260354 1:0.8 2:0.25 3:0.2 4:0.14285714 \0A-0.5315970292804028 1:0.8 2:0.35 3:0.5 4:0.14285714 \0A-0.1114097110919589 1:0.8 2:0.4 3:0.4 4:0.14285714 \0A-0.01249520546891368 1:0.8 2:0.4 3:0.5 4:0.14285714 \0A-0.2953993719277596 1:0.8 2:0.5 3:0.5 4:0.14285714 \0A0.04302323505133746 1:0.8 2:0.55 3:0.2 4:0.14285714 \0A-0.1892517932217734 1:0.8 2:0.55 3:0.45 4:0.14285714 \0A-1 1:0.8 2:0.6 3:0.5 4:0.14285714 \0A-0.07615250020872869 1:0.8 2:0.6 3:0.55 4:0.14285714 \0A-0.06063302759572581 1:0.8 2:0.75 3:0.5 4:0.14285714 \0A0.1129148440567782 1:0.8 2:0.75 3:0.65 4:0.14285714 \0A-0.2346450853926897 1:0.8 2:0.8 3:0.4 4:0.14285714 \0A-1 1:0.8 2:0.8 3:0.5 4:0.14285714 \0A-1 1:0.8 2:0.8 3:0.55 4:0.14285714 \0A0.2647835241855724 1:0.2 2:0.2 3:0.2 4:0.28571429 \0A0.021681655614574 1:0.2 2:0.25 3:0.2 4:0.28571429 \0A0.1368832376463672 1:0.2 2:0.25 3:0.6 4:0.28571429 \0A0.01423844029360578 1:0.2 2:0.3 3:0.26666667 4:0.28571429 \0A0.1899008202167059 1:0.2 2:0.3 3:0.8 4:0.28571429 \0A0.1287169622780912 1:0.2 2:0.65 3:0.8 4:0.28571429 \0A0.2578924180293748 1:0.2 2:0.7 3:0.2 4:0.28571429 \0A0.08404345905705299 1:0.2 2:0.7 3:0.66666667 4:0.28571429 \0A0.07439491108482238 1:0.2 2:0.7 3:0.8 4:0.28571429 \0A-0.0006432778063540903 1:0.2 2:0.8 3:0.5 4:0.28571429 \0A0.05858956823467007 1:0.22666667 2:0.44827586 3:0.26470588 4:0.28571429 \0A0.01298937884942149 1:0.25333333 2:0.40178571 3:0.21052632 4:0.28571429 \0A0.3882896025954724 1:0.25333333 2:0.44642857 3:0.26315789 4:0.28571429 \0A-0.00911067268374835 1:0.25333333 2:0.80357143 3:0.21052632 4:0.28571429 \0A0.009029008671931273 1:0.27333333 2:0.40366972 3:0.19512195 4:0.28571429 \0A0.1418349141289324 1:0.27333333 2:0.44954128 3:0.29268293 4:0.28571429 \0A0.008227725372700887 1:0.27333333 2:0.44954128 3:0.80487805 4:0.28571429 \0A-0.04299167054302689 1:0.27333333 2:0.75229358 3:0.24390244 4:0.28571429 \0A-0.006162251566841708 1:0.3 2:0.8 3:0.2 4:0.28571429 \0A-0.09111327900633509 1:0.32666667 2:0.65346535 3:0.34693878 4:0.28571429 \0A-0.0258054626265483 1:0.32666667 2:0.7029703 3:0.75510204 4:0.28571429 \0A-0.02415259045870603 1:0.35333333 2:0.70103093 3:0.24528302 4:0.28571429 \0A-0.1469180116478655 1:0.4 2:0.54444444 3:0.8 4:0.28571429 \0A0.2833072553696485 1:0.42666667 2:0.34883721 3:0.59375 4:0.28571429 \0A0.01355303406923013 1:0.42666667 2:0.39534884 3:0.546875 4:0.28571429 \0A0.2290844196739131 1:0.42666667 2:0.65116279 3:0.546875 4:0.28571429 \0A0.1178570908434999 1:0.45333333 2:0.19512195 3:0.54411765 4:0.28571429 \0A0.06046243672977385 1:0.45333333 2:0.40243902 3:0.60294118 4:0.28571429 \0A0.1423946457416378 1:0.45333333 2:0.80487805 3:0.39705882 4:0.28571429 \0A0.007815430579740863 1:0.45333333 2:0.80487805 3:0.64705882 4:0.28571429 \0A0.1924781143075323 1:0.47333333 2:0.20253165 3:0.70422535 4:0.28571429 \0A0.1855963432528384 1:0.47333333 2:0.20253165 3:0.8028169 4:0.28571429 \0A0.1640009200706116 1:0.47333333 2:0.69620253 3:0.1971831 4:0.28571429 \0A0.3932828126755543 1:0.47333333 2:0.79746835 3:0.1971831 4:0.28571429 \0A0.7186588869997429 1:0.5 2:0.2 3:0.2 4:0.28571429 \0A0.0003513297812071051 1:0.5 2:0.2 3:0.34666667 4:0.28571429 \0A0.1391389801747556 1:0.5 2:0.25333333 3:0.65333333 4:0.28571429 \0A0.02330878996106901 1:0.5 2:0.25333333 3:0.8 4:0.28571429 \0A0.1519866436548091 1:0.5 2:0.30666667 3:0.2 4:0.28571429 \0A0.1186781443459868 1:0.5 2:0.34666667 3:0.74666667 4:0.28571429 \0A0.1053191571248003 1:0.5 2:0.49333333 3:0.6 4:0.28571429 \0A0.005010086400107649 1:0.5 2:0.54666667 3:0.49333333 4:0.28571429 \0A0.5653119554363314 1:0.52666667 2:0.74647887 3:0.79746835 4:0.28571429 \0A0.06787622926551946 1:0.52666667 2:0.8028169 3:0.74683544 4:0.28571429 \0A0.001058097652629706 1:0.55333333 2:0.25373134 3:0.79518072 4:0.28571429 \0A0.001766944959780314 1:0.55333333 2:0.40298507 3:0.79518072 4:0.28571429 \0A0.5857686285893017 1:0.55333333 2:0.65671642 3:0.20481928 4:0.28571429 \0A0.001017985380128487 1:0.57333333 2:0.203125 3:0.19767442 4:0.28571429 \0A0.03512297285302611 1:0.57333333 2:0.296875 3:0.80232558 4:0.28571429 \0A0.008309229153038602 1:0.57333333 2:0.34375 3:0.80232558 4:0.28571429 \0A0.307063276071051 1:0.57333333 2:0.453125 3:0.19767442 4:0.28571429 \0A0.1341512308934816 1:0.57333333 2:0.5 3:0.19767442 4:0.28571429 \0A0.0483398403718592 1:0.57333333 2:0.65625 3:0.80232558 4:0.28571429 \0A0.005577641881525733 1:0.6 2:0.5 3:0.2 4:0.28571429 \0A-1 1:0.62666667 2:0.30357143 3:0.5 4:0.28571429 \0A-0.1159527443159792 1:0.62666667 2:0.64285714 3:0.55319149 4:0.28571429 \0A-0.3556519136527647 1:0.65333333 2:0.34615385 3:0.5 4:0.28571429 \0A-0.5918258654696605 1:0.65333333 2:0.69230769 3:0.70408163 4:0.28571429 \0A-0.1263493413988876 1:0.67333333 2:0.75510204 3:0.24752475 4:0.28571429 \0A-0.001641870786415262 1:0.7 2:0.31111111 3:0.75238095 4:0.28571429 \0A0.02380087741021985 1:0.72666667 2:0.19512195 3:0.44954128 4:0.28571429 \0A1 1:0.72666667 2:0.19512195 3:0.49541284 4:0.28571429 \0A0.03843513168876561 1:0.72666667 2:0.19512195 3:0.59633028 4:0.28571429 \0A1 1:0.72666667 2:0.24390244 3:0.44954128 4:0.28571429 \0A0.4678339575411229 1:0.72666667 2:0.29268293 3:0.34862385 4:0.28571429 \0A1 1:0.72666667 2:0.29268293 3:0.44954128 4:0.28571429 \0A0.01584004362090234 1:0.72666667 2:0.75609756 3:0.34862385 4:0.28571429 \0A0.8621565629217485 1:0.72666667 2:0.80487805 3:0.59633028 4:0.28571429 \0A0.687293686384469 1:0.75333333 2:0.18918919 3:0.49557522 4:0.28571429 \0A1 1:0.75333333 2:0.18918919 3:0.60176991 4:0.28571429 \0A1 1:0.75333333 2:0.24324324 3:0.45132743 4:0.28571429 \0A0.01568821461940785 1:0.75333333 2:0.45945946 3:0.3539823 4:0.28571429 \0A1 1:0.75333333 2:0.7027027 3:0.60176991 4:0.28571429 \0A1 1:0.75333333 2:0.75675676 3:0.39823009 4:0.28571429 \0A0.03834645770322982 1:0.75333333 2:0.75675676 3:0.49557522 4:0.28571429 \0A0.006534719682771545 1:0.75333333 2:0.75675676 3:0.54867257 4:0.28571429 \0A1 1:0.75333333 2:0.75675676 3:0.6460177 4:0.28571429 \0A1 1:0.75333333 2:0.81081081 3:0.45132743 4:0.28571429 \0A0.00329061097157861 1:0.75333333 2:0.81081081 3:0.54867257 4:0.28571429 \0A0.1447348638769029 1:0.75333333 2:0.81081081 3:0.60176991 4:0.28571429 \0A0.04806360024793592 1:0.75333333 2:0.81081081 3:0.6460177 4:0.28571429 \0A0.6848522543397942 1:0.77333333 2:0.26470588 3:0.44827586 4:0.28571429 \0A0.8313263807588944 1:0.77333333 2:0.26470588 3:0.60344828 4:0.28571429 \0A0.0009807846298986874 1:0.77333333 2:0.5 3:0.39655172 4:0.28571429 \0A0.8000565261146639 1:0.77333333 2:0.5 3:0.60344828 4:0.28571429 \0A0.3970087667656403 1:0.77333333 2:0.58823529 3:0.44827586 4:0.28571429 \0A0.246173505555486 1:0.77333333 2:0.64705882 3:0.39655172 4:0.28571429 \0A0.06848815914870858 1:0.77333333 2:0.64705882 3:0.64655172 4:0.28571429 \0A0.2166373327562426 1:0.77333333 2:0.70588235 3:0.35344828 4:0.28571429 \0A0.001447740450808778 1:0.77333333 2:0.70588235 3:0.55172414 4:0.28571429 \0A0.3759936878439463 1:0.77333333 2:0.76470588 3:0.39655172 4:0.28571429 \0A0.01440033584811751 1:0.77333333 2:0.76470588 3:0.60344828 4:0.28571429 \0A0.1145987394309219 1:0.77333333 2:0.79411765 3:0.64655172 4:0.28571429 \0A0.7808280177979096 1:0.8 2:0.2 3:0.2 4:0.28571429 \0A-0.01094982456318567 1:0.8 2:0.2 3:0.4 4:0.28571429 \0A-1 1:0.8 2:0.2 3:0.45 4:0.28571429 \0A-0.7993432355433207 1:0.8 2:0.2 3:0.5 4:0.28571429 \0A0.1082260120851962 1:0.8 2:0.2 3:0.75 4:0.28571429 \0A0.1440633092276004 1:0.8 2:0.5 3:0.2 4:0.28571429 \0A-0.09759508856854318 1:0.8 2:0.5 3:0.5 4:0.28571429 \0A0.3777344926585111 1:0.8 2:0.8 3:0.2 4:0.28571429 \0A-0.07545914768242526 1:0.8 2:0.8 3:0.45 4:0.28571429 \0A-1 1:0.8 2:0.8 3:0.5 4:0.28571429 \0A-0.002156228737567375 1:0.8 2:0.8 3:0.55 4:0.28571429 \0A0.4283076007228073 1:0.8 2:0.8 3:0.8 4:0.28571429 \0A0.04449615215339716 1:0.2 2:0.2 3:0.2 4:0.42857143 \0A-0.1320752029012897 1:0.2 2:0.45 3:0.2 4:0.42857143 \0A-0.008173294645595859 1:0.2 2:0.45 3:0.45 4:0.42857143 \0A-0.02861952088231923 1:0.2 2:0.45 3:0.55 4:0.42857143 \0A-0.04285391432322713 1:0.2 2:0.45 3:0.75 4:0.42857143 \0A-0.03667294100190568 1:0.2 2:0.5 3:0.2 4:0.42857143 \0A-0.1060132208632206 1:0.2 2:0.5 3:0.75 4:0.42857143 \0A0.02051146031102578 1:0.2 2:0.7 3:0.8 4:0.42857143 \0A-0.01369795763331014 1:0.25 2:0.2 3:0.36 4:0.42857143 \0A-0.001352778532604716 1:0.25 2:0.25333333 3:0.44 4:0.42857143 \0A-0.03400937633471584 1:0.25 2:0.8 3:0.2 4:0.42857143 \0A-0.005384325095049922 1:0.275 2:0.24827586 3:0.49090909 4:0.42857143 \0A-0.0111263929259949 1:0.275 2:0.35172414 3:0.54545455 4:0.42857143 \0A-0.01951469286690584 1:0.3 2:0.2 3:0.3 4:0.42857143 \0A-0.1552811090343472 1:0.3 2:0.2 3:0.75 4:0.42857143 \0A-0.0137987704448756 1:0.3 2:0.25 3:0.35 4:0.42857143 \0A-0.1786137209424445 1:0.3 2:0.25 3:0.8 4:0.42857143 \0A-0.01834540145898148 1:0.3 2:0.65 3:0.25 4:0.42857143 \0A-0.2255387329099477 1:0.3 2:0.7 3:0.25 4:0.42857143 \0A-0.02516095707745136 1:0.3 2:0.75 3:0.2 4:0.42857143 \0A-0.07392356826959016 1:0.3 2:0.75 3:0.75 4:0.42857143 \0A-0.04231250680862637 1:0.3 2:0.8 3:0.25 4:0.42857143 \0A-0.007663882117388645 1:0.325 2:0.2 3:0.8 4:0.42857143 \0A-0.7457320431438289 1:0.325 2:0.25185185 3:0.2 4:0.42857143 \0A-0.005503494796048242 1:0.325 2:0.25185185 3:0.30769231 4:0.42857143 \0A-0.001357273457763573 1:0.325 2:0.25185185 3:0.44615385 4:0.42857143 \0A-0.02015869753707464 1:0.325 2:0.3037037 3:0.24615385 4:0.42857143 \0A-0.04255692541375034 1:0.325 2:0.34814815 3:0.75384615 4:0.42857143 \0A-0.05411001805859944 1:0.325 2:0.65185185 3:0.8 4:0.42857143 \0A-0.08191081364503378 1:0.325 2:0.7037037 3:0.75384615 4:0.42857143 \0A-0.05923912901288052 1:0.325 2:0.7037037 3:0.8 4:0.42857143 \0A-0.03592875561387267 1:0.35 2:0.6 3:0.75714286 4:0.42857143 \0A-0.02171630930494084 1:0.35 2:0.7 3:0.8 4:0.42857143 \0A-0.001105494591186577 1:0.35 2:0.75384615 3:0.75714286 4:0.42857143 \0A0.001216039687282729 1:0.4 2:0.8 3:0.4 4:0.42857143 \0A0.05922077774052074 1:0.4 2:0.8 3:0.5 4:0.42857143 \0A0.008878074635266964 1:0.425 2:0.2 3:0.64705882 4:0.42857143 \0A0.00240311616155475 1:0.425 2:0.8 3:0.44705882 4:0.42857143 \0A0.00212795440596023 1:0.425 2:0.8 3:0.55294118 4:0.42857143 \0A0.003011615226619774 1:0.45 2:0.5 3:0.54444444 4:0.42857143 \0A0.000889952066608308 1:0.475 2:0.2 3:0.65263158 4:0.42857143 \0A0.2330519838926279 1:0.525 2:0.25263158 3:0.8 4:0.42857143 \0A0.2166590972157478 1:0.525 2:0.74736842 3:0.8 4:0.42857143 \0A0.001579206099347716 1:0.525 2:0.8 3:0.2 4:0.42857143 \0A0.2059543629381529 1:0.55 2:0.4 3:0.8 4:0.42857143 \0A0.3544032919837971 1:0.55 2:0.65555556 3:0.8 4:0.42857143 \0A0.0008769784313698531 1:0.55 2:0.7 3:0.2 4:0.42857143 \0A0.1654339889057651 1:0.575 2:0.70588235 3:0.8 4:0.42857143 \0A-0.2791311562633449 1:0.575 2:0.75294118 3:0.45217391 4:0.42857143 \0A0.01972528685563882 1:0.575 2:0.8 3:0.8 4:0.42857143 \0A-0.001859120554721611 1:0.6 2:0.25 3:0.45 4:0.42857143 \0A0.01521119394645598 1:0.6 2:0.7 3:0.8 4:0.42857143 \0A-0.9223908503283474 1:0.625 2:0.25333333 3:0.496 4:0.42857143 \0A-1 1:0.625 2:0.25333333 3:0.552 4:0.42857143 \0A-0.2352518579793432 1:0.625 2:0.25333333 3:0.704 4:0.42857143 \0A-0.0472020210341995 1:0.625 2:0.34666667 3:0.448 4:0.42857143 \0A-0.1330625705416863 1:0.625 2:0.65333333 3:0.304 4:0.42857143 \0A-0.104505740722707 1:0.625 2:0.65333333 3:0.4 4:0.42857143 \0A-0.01211026267195599 1:0.625 2:0.70666667 3:0.448 4:0.42857143 \0A-0.1624866852405818 1:0.625 2:0.74666667 3:0.304 4:0.42857143 \0A-0.6755767835097863 1:0.625 2:0.74666667 3:0.496 4:0.42857143 \0A-0.179727315540498 1:0.625 2:0.74666667 3:0.552 4:0.42857143 \0A-0.1947022071502777 1:0.65 2:0.3 3:0.54615385 4:0.42857143 \0A-0.1388364121640707 1:0.65 2:0.3 3:0.6 4:0.42857143 \0A-0.3513782507249655 1:0.65 2:0.7 3:0.65384615 4:0.42857143 \0A-0.001406497278172898 1:0.65 2:0.75714286 3:0.3 4:0.42857143 \0A-0.0438949424857122 1:0.65 2:0.75714286 3:0.35384615 4:0.42857143 \0A-0.5861222587895963 1:0.65 2:0.75714286 3:0.75384615 4:0.42857143 \0A-0.0361440295670948 1:0.675 2:0.2 3:0.7037037 4:0.42857143 \0A-0.03168218904821609 1:0.675 2:0.2 3:0.74814815 4:0.42857143 \0A-0.003747695993699025 1:0.675 2:0.24615385 3:0.74814815 4:0.42857143 \0A-0.04675371702530456 1:0.675 2:0.30769231 3:0.74814815 4:0.42857143 \0A-0.8109528681711682 1:0.675 2:0.70769231 3:0.25185185 4:0.42857143 \0A-0.8911076996529095 1:0.675 2:0.70769231 3:0.74814815 4:0.42857143 \0A-0.2263163476346403 1:0.675 2:0.75384615 3:0.25185185 4:0.42857143 \0A-0.1921678812639322 1:0.7 2:0.2 3:0.25 4:0.42857143 \0A-0.007285272058103063 1:0.7 2:0.2 3:0.75 4:0.42857143 \0A-1 1:0.7 2:0.25 3:0.75 4:0.42857143 \0A-1 1:0.7 2:0.3 3:0.25 4:0.42857143 \0A-0.0236018935393915 1:0.7 2:0.3 3:0.8 4:0.42857143 \0A-0.5232369862086025 1:0.7 2:0.35 3:0.25 4:0.42857143 \0A-0.8130657464326642 1:0.7 2:0.7 3:0.25 4:0.42857143 \0A-0.004110223176895826 1:0.7 2:0.7 3:0.75 4:0.42857143 \0A-1 1:0.725 2:0.2 3:0.24827586 4:0.42857143 \0A0.1638768425151584 1:0.725 2:0.25454545 3:0.4 4:0.42857143 \0A-0.7174604370704605 1:0.725 2:0.74545455 3:0.75172414 4:0.42857143 \0A0.1372581740331562 1:0.725 2:0.8 3:0.55172414 4:0.42857143 \0A0.01055705620778266 1:0.75 2:0.2 3:0.54666667 4:0.42857143 \0A-0.0008443805696940013 1:0.75 2:0.3 3:0.25333333 4:0.42857143 \0A0.001780525801334438 1:0.75 2:0.66 3:0.4 4:0.42857143 \0A0.001675251116332548 1:0.75 2:0.76 3:0.4 4:0.42857143 \0A0.01323754712913269 1:0.75 2:0.76 3:0.6 4:0.42857143 \0A-0.411674530569151 1:0.8 2:0.2 3:0.4 4:0.42857143 \0A-1 1:0.8 2:0.2 3:0.45 4:0.42857143 \0A-1 1:0.8 2:0.2 3:0.5 4:0.42857143 \0A-0.75461358794671 1:0.8 2:0.2 3:0.55 4:0.42857143 \0A0.2987332118889874 1:0.8 2:0.2 3:0.8 4:0.42857143 \0A-0.02227962965903978 1:0.8 2:0.25 3:0.5 4:0.42857143 \0A-1 1:0.8 2:0.45 3:0.5 4:0.42857143 \0A0.001181195808661355 1:0.8 2:0.5 3:0.2 4:0.42857143 \0A-0.6161856681782628 1:0.8 2:0.5 3:0.5 4:0.42857143 \0A0.01125340726895895 1:0.8 2:0.55 3:0.2 4:0.42857143 \0A-1 1:0.8 2:0.6 3:0.5 4:0.42857143 \0A0.03123703831069516 1:0.8 2:0.6 3:0.8 4:0.42857143 \0A0.02521815927875169 1:0.8 2:0.7 3:0.65 4:0.42857143 \0A0.07336201444913903 1:0.8 2:0.8 3:0.2 4:0.42857143 \0A-0.01191244330449675 1:0.8 2:0.8 3:0.4 4:0.42857143 \0A-1 1:0.8 2:0.8 3:0.45 4:0.42857143 \0A-1 1:0.8 2:0.8 3:0.5 4:0.42857143 \0A-1 1:0.8 2:0.8 3:0.55 4:0.42857143 \0A0.002198590939771857 1:0.8 2:0.8 3:0.8 4:0.42857143 \0A0.3194094591056422 1:0.2 2:0.2 3:0.2 4:0.57142857 \0A0.2595885432610891 1:0.2 2:0.25 3:0.8 4:0.57142857 \0A-0.1770491446174749 1:0.2 2:0.45 3:0.2 4:0.57142857 \0A-0.01841316628279822 1:0.2 2:0.45 3:0.54 4:0.57142857 \0A-0.01268408793050939 1:0.2 2:0.45 3:0.66 4:0.57142857 \0A-0.001506635066443852 1:0.2 2:0.45 3:0.76 4:0.57142857 \0A0.1061722873362782 1:0.2 2:0.7 3:0.2 4:0.57142857 \0A0.02238808426242592 1:0.2 2:0.7 3:0.44 4:0.57142857 \0A0.05702925024283817 1:0.2 2:0.7 3:0.8 4:0.57142857 \0A0.02800424883592251 1:0.2 2:0.75 3:0.2 4:0.57142857 \0A0.00829044182454871 1:0.2 2:0.75 3:0.8 4:0.57142857 \0A-0.07003728618346666 1:0.276 2:0.24861878 3:0.69565217 4:0.57142857 \0A-0.03781633793147846 1:0.3 2:0.25142857 3:0.74666667 4:0.57142857 \0A-0.03358578288225392 1:0.3 2:0.8 3:0.2 4:0.57142857 \0A-0.04833751100888517 1:0.324 2:0.20118343 3:0.80246914 4:0.57142857 \0A-0.004432077490535249 1:0.324 2:0.69822485 3:0.75308642 4:0.57142857 \0A-0.05375455051619905 1:0.324 2:0.69822485 3:0.80246914 4:0.57142857 \0A-0.01037199916183614 1:0.324 2:0.75147929 3:0.19753086 4:0.57142857 \0A-0.02998256884048648 1:0.324 2:0.75147929 3:0.75308642 4:0.57142857 \0A-0.02065736240185986 1:0.324 2:0.79881657 3:0.24691358 4:0.57142857 \0A0.009017946376014389 1:0.376 2:0.3974359 3:0.44680851 4:0.57142857 \0A-0.03792786104854817 1:0.376 2:0.5 3:0.75531915 4:0.57142857 \0A0.0193021194933604 1:0.376 2:0.80128205 3:0.44680851 4:0.57142857 \0A0.0684274892586022 1:0.424 2:0.20138889 3:0.60377358 4:0.57142857 \0A0.2600151072698819 1:0.424 2:0.45138889 3:0.54716981 4:0.57142857 \0A5.458371023339161e-05 1:0.424 2:0.65277778 3:0.54716981 4:0.57142857 \0A0.006734190379347979 1:0.452 2:0.40145985 3:0.60176991 4:0.57142857 \0A0.005928042087922652 1:0.452 2:0.70072993 3:0.39823009 4:0.57142857 \0A0.001302010514431515 1:0.452 2:0.80291971 3:0.3539823 4:0.57142857 \0A0.1716399182562681 1:0.476 2:0.19847328 3:0.20168067 4:0.57142857 \0A0.004898400991859377 1:0.476 2:0.19847328 3:0.54621849 4:0.57142857 \0A0.007016443173052275 1:0.476 2:0.35114504 3:0.64705882 4:0.57142857 \0A0.06625124834530353 1:0.476 2:0.45038168 3:0.54621849 4:0.57142857 \0A0.1005455492686157 1:0.476 2:0.54961832 3:0.49579832 4:0.57142857 \0A0.01483612926449989 1:0.476 2:0.80152672 3:0.74789916 4:0.57142857 \0A0.1065167994688365 1:0.5 2:0.2 3:0.2 4:0.57142857 \0A0.09720847552961118 1:0.5 2:0.4 3:0.2 4:0.57142857 \0A0.007485338950095891 1:0.5 2:0.552 3:0.648 4:0.57142857 \0A0.002147017645761106 1:0.5 2:0.6 3:0.552 4:0.57142857 \0A0.06531942867022551 1:0.524 2:0.35294118 3:0.19847328 4:0.57142857 \0A0.006154569430117123 1:0.524 2:0.45378151 3:0.64885496 4:0.57142857 \0A0.02958516659478695 1:0.524 2:0.69747899 3:0.19847328 4:0.57142857 \0A0.09955755650528754 1:0.524 2:0.69747899 3:0.80152672 4:0.57142857 \0A0.013454134094283 1:0.552 2:0.34821429 3:0.20289855 4:0.57142857 \0A0.01154884317034955 1:0.6 2:0.4 3:0.2 4:0.57142857 \0A0.1814901818515004 1:0.6 2:0.45 3:0.2 4:0.57142857 \0A0.01778765539520384 1:0.6 2:0.5 3:0.2 4:0.57142857 \0A-0.01407976429396099 1:0.6 2:0.8 3:0.4 4:0.57142857 \0A-0.04252902032675845 1:0.652 2:0.1954023 3:0.6993865 4:0.57142857 \0A-0.03068500352356344 1:0.652 2:0.74712644 3:0.6993865 4:0.57142857 \0A-0.6083678203330157 1:0.652 2:0.8045977 3:0.6993865 4:0.57142857 \0A-0.01158786855433167 1:0.676 2:0.7037037 3:0.69822485 4:0.57142857 \0A0.006589358912672718 1:0.7 2:0.2 3:0.45142857 4:0.57142857 \0A-0.07604407913201865 1:0.7 2:0.30666667 3:0.74857143 4:0.57142857 \0A1 1:0.724 2:0.20289855 3:0.39779006 4:0.57142857 \0A0.6046517325982751 1:0.724 2:0.20289855 3:0.49723757 4:0.57142857 \0A0.007487814143337811 1:0.724 2:0.20289855 3:0.55248619 4:0.57142857 \0A1 1:0.724 2:0.24637681 3:0.44751381 4:0.57142857 \0A1 1:0.724 2:0.24637681 3:0.49723757 4:0.57142857 \0A0.1392614985523932 1:0.724 2:0.5942029 3:0.44751381 4:0.57142857 \0A1 1:0.724 2:0.79710145 3:0.39779006 4:0.57142857 \0A1 1:0.724 2:0.79710145 3:0.44751381 4:0.57142857 \0A0.1595638987993646 1:0.752 2:0.19354839 3:0.5 4:0.57142857 \0A0.1422554409883132 1:0.752 2:0.19354839 3:0.54787234 4:0.57142857 \0A1 1:0.752 2:0.19354839 3:0.60106383 4:0.57142857 \0A1 1:0.752 2:0.25806452 3:0.39893617 4:0.57142857 \0A0.3887822230849074 1:0.752 2:0.25806452 3:0.45212766 4:0.57142857 \0A0.06956178280044222 1:0.752 2:0.30645161 3:0.39893617 4:0.57142857 \0A0.005715940517550058 1:0.752 2:0.30645161 3:0.45212766 4:0.57142857 \0A1 1:0.752 2:0.30645161 3:0.5 4:0.57142857 \0A0.2722823231726074 1:0.752 2:0.4516129 3:0.45212766 4:0.57142857 \0A0.3807433019550806 1:0.752 2:0.4516129 3:0.60106383 4:0.57142857 \0A0.6047846303389237 1:0.752 2:0.5 3:0.60106383 4:0.57142857 \0A0.001450533209966512 1:0.752 2:0.5483871 3:0.60106383 4:0.57142857 \0A1 1:0.752 2:0.59677419 3:0.39893617 4:0.57142857 \0A0.04827236679779165 1:0.752 2:0.64516129 3:0.45212766 4:0.57142857 \0A1 1:0.752 2:0.69354839 3:0.45212766 4:0.57142857 \0A0.08940208276740273 1:0.752 2:0.69354839 3:0.54787234 4:0.57142857 \0A1 1:0.752 2:0.75806452 3:0.39893617 4:0.57142857 \0A0.4612764083531154 1:0.752 2:0.75806452 3:0.45212766 4:0.57142857 \0A1 1:0.752 2:0.75806452 3:0.54787234 4:0.57142857 \0A0.01697375620298083 1:0.752 2:0.80645161 3:0.35106383 4:0.57142857 \0A1 1:0.752 2:0.80645161 3:0.60106383 4:0.57142857 \0A0.8552689951465782 1:0.752 2:0.80645161 3:0.64893617 4:0.57142857 \0A0.002058750620567353 1:0.776 2:0.25 3:0.35051546 4:0.57142857 \0A0.2791953420144616 1:0.776 2:0.25 3:0.55154639 4:0.57142857 \0A0.1345475101092208 1:0.776 2:0.60714286 3:0.55154639 4:0.57142857 \0A0.0241993704714513 1:0.776 2:0.69642857 3:0.40206186 4:0.57142857 \0A0.0472181252384726 1:0.776 2:0.69642857 3:0.59793814 4:0.57142857 \0A1 1:0.776 2:0.75 3:0.55154639 4:0.57142857 \0A0.03395003741916533 1:0.776 2:0.75 3:0.59793814 4:0.57142857 \0A1 1:0.8 2:0.2 3:0.2 4:0.57142857 \0A-1 1:0.8 2:0.2 3:0.45 4:0.57142857 \0A-0.1242092245146457 1:0.8 2:0.2 3:0.5 4:0.57142857 \0A0.1786413344038866 1:0.8 2:0.2 3:0.8 4:0.57142857 \0A0.4091400004316592 1:0.8 2:0.26 3:0.2 4:0.57142857 \0A0.00742547942417978 1:0.8 2:0.5 3:0.2 4:0.57142857 \0A0.01278724384448108 1:0.8 2:0.5 3:0.8 4:0.57142857 \0A0.1256056693092899 1:0.8 2:0.54 3:0.2 4:0.57142857 \0A0.09351908825411137 1:0.8 2:0.54 3:0.8 4:0.57142857 \0A0.0534087520144504 1:0.8 2:0.6 3:0.2 4:0.57142857 \0A0.003715294731330602 1:0.8 2:0.66 3:0.2 4:0.57142857 \0A0.5218686334988335 1:0.8 2:0.8 3:0.2 4:0.57142857 \0A-1 1:0.8 2:0.8 3:0.45 4:0.57142857 \0A-1 1:0.8 2:0.8 3:0.5 4:0.57142857 \0A0.3981250007492238 1:0.8 2:0.8 3:0.8 4:0.57142857 \0A0.111914151071369 1:0.2 2:0.2 3:0.2 4:0.71428571 \0A0.0572968659716748 1:0.2 2:0.25 3:0.2 4:0.71428571 \0A0.01642556358498197 1:0.2 2:0.25 3:0.65 4:0.71428571 \0A0.1085607185550076 1:0.2 2:0.25 3:0.8 4:0.71428571 \0A-0.0341926625013421 1:0.2 2:0.45 3:0.55 4:0.71428571 \0A-0.004273388014296689 1:0.2 2:0.5 3:0.2 4:0.71428571 \0A-0.08648430903727522 1:0.2 2:0.5 3:0.55 4:0.71428571 \0A0.04882809343522567 1:0.2 2:0.65 3:0.8 4:0.71428571 \0A0.4562746725305334 1:0.2 2:0.7 3:0.2 4:0.71428571 \0A0.260165246465615 1:0.2 2:0.7 3:0.8 4:0.71428571 \0A0.009893925228327161 1:0.2 2:0.75 3:0.8 4:0.71428571 \0A-0.08760489234924247 1:0.22666667 2:0.5 3:0.45588235 4:0.71428571 \0A-0.1604490166836893 1:0.3 2:0.25238095 3:0.2 4:0.71428571 \0A-0.003799302824009101 1:0.3 2:0.5 3:0.54444444 4:0.71428571 \0A-0.01820707994703404 1:0.3 2:0.8 3:0.2 4:0.71428571 \0A-0.03212011092809838 1:0.32666667 2:0.5990099 3:0.20408163 4:0.71428571 \0A-0.1284860740404501 1:0.32666667 2:0.6980198 3:0.79591837 4:0.71428571 \0A-0.03778666116493984 1:0.32666667 2:0.75247525 3:0.79591837 4:0.71428571 \0A-0.08976695657381151 1:0.35 2:0.25128205 3:0.2 4:0.71428571 \0A-0.03461240375063271 1:0.35 2:0.4974359 3:0.2 4:0.71428571 \0A-0.2564946033361808 1:0.35 2:0.4974359 3:0.75238095 4:0.71428571 \0A-0.3289527913131878 1:0.35 2:0.65128205 3:0.2 4:0.71428571 \0A-0.005834621800836946 1:0.37666667 2:0.44919786 3:0.75221239 4:0.71428571 \0A-0.06601418968039603 1:0.37666667 2:0.59893048 3:0.20353982 4:0.71428571 \0A0.1325883126580945 1:0.4 2:0.2 3:0.45 4:0.71428571 \0A0.007099834614989514 1:0.4 2:0.2 3:0.6 4:0.71428571 \0A-0.03288557767774457 1:0.4 2:0.45 3:0.8 4:0.71428571 \0A-0.01610169893319351 1:0.4 2:0.55 3:0.8 4:0.71428571 \0A0.0499916471847751 1:0.42666667 2:0.19767442 3:0.546875 4:0.71428571 \0A0.1810843460054266 1:0.42666667 2:0.75 3:0.5 4:0.71428571 \0A0.001304705389312695 1:0.42666667 2:0.80232558 3:0.3515625 4:0.71428571 \0A0.001861585278038589 1:0.42666667 2:0.80232558 3:0.3984375 4:0.71428571 \0A0.09567508481579026 1:0.45 2:0.2 3:0.7037037 4:0.71428571 \0A0.0478926354752046 1:0.45 2:0.75151515 3:0.54814815 4:0.71428571 \0A0.1901165809253822 1:0.45 2:0.8 3:0.45185185 4:0.71428571 \0A0.008069465815773887 1:0.47666667 2:0.19745223 3:0.65034965 4:0.71428571 \0A0.02478984948039777 1:0.47666667 2:0.19745223 3:0.6993007 4:0.71428571 \0A0.02008348040737596 1:0.47666667 2:0.19745223 3:0.74825175 4:0.71428571 \0A0.09168899443358429 1:0.47666667 2:0.40127389 3:0.6013986 4:0.71428571 \0A0.005866005129628519 1:0.47666667 2:0.5477707 3:0.3986014 4:0.71428571 \0A0.009189574360956201 1:0.47666667 2:0.70063694 3:0.4965035 4:0.71428571 \0A0.2271731792895608 1:0.47666667 2:0.70063694 3:0.65034965 4:0.71428571 \0A0.1474306008568293 1:0.47666667 2:0.80254777 3:0.2027972 4:0.71428571 \0A0.1069337790091349 1:0.47666667 2:0.80254777 3:0.7972028 4:0.71428571 \0A0.1079170756181302 1:0.5 2:0.2 3:0.2 4:0.71428571 \0A0.07083610142076815 1:0.5 2:0.2 3:0.8 4:0.71428571 \0A0.004248171588965004 1:0.5 2:0.35333333 3:0.7 4:0.71428571 \0A0.00306381509111561 1:0.5 2:0.45333333 3:0.45333333 4:0.71428571 \0A0.001605178427371508 1:0.5 2:0.8 3:0.65333333 4:0.71428571 \0A0.09762752482872447 1:0.5 2:0.8 3:0.8 4:0.71428571 \0A0.02212882185657961 1:0.52666667 2:0.64788732 3:0.75316456 4:0.71428571 \0A0.6350511950273171 1:0.52666667 2:0.6971831 3:0.20253165 4:0.71428571 \0A0.003907613576416047 1:0.55 2:0.34814815 3:0.2 4:0.71428571 \0A0.009391064066700046 1:0.55 2:0.65185185 3:0.2 4:0.71428571 \0A0.008595365174260964 1:0.55 2:0.74814815 3:0.2 4:0.71428571 \0A0.04893072745915465 1:0.55 2:0.74814815 3:0.8 4:0.71428571 \0A0.1407944454583921 1:0.57666667 2:0.2992126 3:0.79768786 4:0.71428571 \0A0.001646072085742538 1:0.57666667 2:0.65354331 3:0.79768786 4:0.71428571 \0A-0.1988222255072646 1:0.6 2:0.25 3:0.5 4:0.71428571 \0A0.02225427678759917 1:0.6 2:0.45 3:0.2 4:0.71428571 \0A0.0100299923681623 1:0.6 2:0.6 3:0.2 4:0.71428571 \0A-0.4915091505419731 1:0.6 2:0.7 3:0.5 4:0.71428571 \0A-0.3711495780622908 1:0.6 2:0.75 3:0.45 4:0.71428571 \0A-0.03845899332892895 1:0.62666667 2:0.25 3:0.5 4:0.71428571 \0A-0.5528550217424721 1:0.62666667 2:0.30357143 3:0.54787234 4:0.71428571 \0A-1 1:0.62666667 2:0.69642857 3:0.45212766 4:0.71428571 \0A-0.0453801768157095 1:0.62666667 2:0.75 3:0.5 4:0.71428571 \0A-0.04344601505881177 1:0.65 2:0.24761905 3:0.4974359 4:0.71428571 \0A-1 1:0.65 2:0.35238095 3:0.4974359 4:0.71428571 \0A-0.02356862664658721 1:0.65 2:0.7047619 3:0.4974359 4:0.71428571 \0A-0.005916016734369745 1:0.65 2:0.75238095 3:0.45128205 4:0.71428571 \0A-0.006568492156637776 1:0.67666667 2:0.19587629 3:0.25123153 4:0.71428571 \0A-0.00571572251300171 1:0.67666667 2:0.19587629 3:0.69950739 4:0.71428571 \0A-0.6393647800651143 1:0.67666667 2:0.75257732 3:0.25123153 4:0.71428571 \0A-0.04730638409328056 1:0.67666667 2:0.75257732 3:0.74876847 4:0.71428571 \0A-1 1:0.7 2:0.2 3:0.25238095 4:0.71428571 \0A-0.00801468598796504 1:0.7 2:0.25555556 3:0.25238095 4:0.71428571 \0A-0.1556771855142582 1:0.7 2:0.25555556 3:0.7 4:0.71428571 \0A-0.08609037470548392 1:0.7 2:0.3 3:0.25238095 4:0.71428571 \0A-0.0006592782168926095 1:0.7 2:0.7 3:0.75238095 4:0.71428571 \0A-0.548100129202025 1:0.72666667 2:0.19512195 3:0.25229358 4:0.71428571 \0A0.002433618047258437 1:0.77666667 2:0.80597015 3:0.64806867 4:0.71428571 \0A0.1374125643229005 1:0.8 2:0.2 3:0.2 4:0.71428571 \0A-1 1:0.8 2:0.2 3:0.4 4:0.71428571 \0A-1 1:0.8 2:0.2 3:0.45 4:0.71428571 \0A-1 1:0.8 2:0.2 3:0.5 4:0.71428571 \0A-0.4063530938003239 1:0.8 2:0.2 3:0.55 4:0.71428571 \0A0.1229067831574859 1:0.8 2:0.2 3:0.8 4:0.71428571 \0A-0.5903236281969014 1:0.8 2:0.45 3:0.45 4:0.71428571 \0A-0.7667805710345437 1:0.8 2:0.45 3:0.5 4:0.71428571 \0A0.01390305188007804 1:0.8 2:0.45 3:0.8 4:0.71428571 \0A-0.654202641206025 1:0.8 2:0.55 3:0.5 4:0.71428571 \0A0.02109459348954012 1:0.8 2:0.55 3:0.8 4:0.71428571 \0A-0.7387868353096932 1:0.8 2:0.6 3:0.45 4:0.71428571 \0A-0.3961607097878477 1:0.8 2:0.75 3:0.45 4:0.71428571 \0A-0.1534140472868994 1:0.8 2:0.75 3:0.5 4:0.71428571 \0A-1 1:0.8 2:0.8 3:0.45 4:0.71428571 \0A-1 1:0.8 2:0.8 3:0.5 4:0.71428571 \0A-1 1:0.8 2:0.8 3:0.55 4:0.71428571 \0A0.08765777920042618 1:0.2 2:0.25 3:0.8 4:0.85714286 \0A0.08919286126596852 1:0.2 2:0.3 3:0.25714286 4:0.85714286 \0A0.09703004367426141 1:0.2 2:0.3 3:0.3 4:0.85714286 \0A0.1472637320484911 1:0.2 2:0.35 3:0.3 4:0.85714286 \0A-0.09760592158359327 1:0.2 2:0.5 3:0.5 4:0.85714286 \0A0.1850534718090514 1:0.2 2:0.7 3:0.8 4:0.85714286 \0A-0.02919463120537171 1:0.22571429 2:0.19926199 3:0.35443038 4:0.85714286 \0A-0.02390267873826181 1:0.22571429 2:0.19926199 3:0.40506329 4:0.85714286 \0A-0.1987959409198143 1:0.25142857 2:0.80152672 3:0.25 4:0.85714286 \0A-0.06258182174702752 1:0.25142857 2:0.80152672 3:0.60227273 4:0.85714286 \0A-0.3952138464800759 1:0.27428571 2:0.2007874 3:0.25 4:0.85714286 \0A-0.1174746305523112 1:0.27428571 2:0.2007874 3:0.75 4:0.85714286 \0A-0.1581544805209883 1:0.27428571 2:0.7992126 3:0.19791667 4:0.85714286 \0A-0.003970112150672717 1:0.27428571 2:0.7992126 3:0.64583333 4:0.85714286 \0A-0.003660671874936888 1:0.27428571 2:0.7992126 3:0.69791667 4:0.85714286 \0A-0.03173894509918363 1:0.27428571 2:0.7992126 3:0.75 4:0.85714286 \0A-0.03978435476465098 1:0.27428571 2:0.7992126 3:0.80208333 4:0.85714286 \0A-0.01161530796436529 1:0.3 2:0.2 3:0.75238095 4:0.85714286 \0A-0.2205029599099313 1:0.3 2:0.2 3:0.8 4:0.85714286 \0A-0.4126568151660818 1:0.3 2:0.24897959 3:0.2 4:0.85714286 \0A0.0931415116326673 1:0.3 2:0.4 3:0.3047619 4:0.85714286 \0A-0.1744963593364133 1:0.3 2:0.70204082 3:0.2 4:0.85714286 \0A-0.05752325652171417 1:0.3 2:0.70204082 3:0.24761905 4:0.85714286 \0A-0.1761851064325156 1:0.3 2:0.75102041 3:0.2 4:0.85714286 \0A-0.005817148993734977 1:0.3 2:0.8 3:0.24761905 4:0.85714286 \0A-0.002679279758798603 1:0.32571429 2:0.25 3:0.20175439 4:0.85714286 \0A-0.3221602003687812 1:0.32571429 2:0.25 3:0.79824561 4:0.85714286 \0A-0.737361617428408 1:0.32571429 2:0.75 3:0.79824561 4:0.85714286 \0A-0.003322686834884509 1:0.35142857 2:0.25110132 3:0.20325203 4:0.85714286 \0A-0.02118102981646922 1:0.35142857 2:0.25110132 3:0.79674797 4:0.85714286 \0A-0.1537205937635201 1:0.37428571 2:0.49771689 3:0.80152672 4:0.85714286 \0A-0.02436208471438989 1:0.37428571 2:0.54794521 3:0.80152672 4:0.85714286 \0A0.001465247310473992 1:0.4 2:0.35238095 3:0.35 4:0.85714286 \0A-0.02514627941119762 1:0.4 2:0.54761905 3:0.8 4:0.85714286 \0A0.0007528676692827168 1:0.42571429 2:0.19900498 3:0.4966443 4:0.85714286 \0A0.09663760466820218 1:0.42571429 2:0.19900498 3:0.59731544 4:0.85714286 \0A0.0250982158554981 1:0.42571429 2:0.34825871 3:0.59731544 4:0.85714286 \0A0.1535762870533227 1:0.42571429 2:0.39800995 3:0.40268456 4:0.85714286 \0A0.007813937418602163 1:0.42571429 2:0.39800995 3:0.44966443 4:0.85714286 \0A0.04244592748379604 1:0.42571429 2:0.70149254 3:0.40268456 4:0.85714286 \0A0.001251602678778133 1:0.42571429 2:0.80099502 3:0.34899329 4:0.85714286 \0A0.03689287249224704 1:0.42571429 2:0.80099502 3:0.40268456 4:0.85714286 \0A0.09634633942990406 1:0.42571429 2:0.80099502 3:0.55033557 4:0.85714286 \0A0.1067483802779254 1:0.45142857 2:0.19791667 3:0.60126582 4:0.85714286 \0A0.05194828423393814 1:0.45142857 2:0.40104167 3:0.34810127 4:0.85714286 \0A0.00648325215856319 1:0.45142857 2:0.5 3:0.60126582 4:0.85714286 \0A0.1462724065451693 1:0.45142857 2:0.55208333 3:0.55063291 4:0.85714286 \0A0.251023909851048 1:0.45142857 2:0.59895833 3:0.44936709 4:0.85714286 \0A0.09861577214730943 1:0.45142857 2:0.69791667 3:0.55063291 4:0.85714286 \0A0.03816618341572179 1:0.45142857 2:0.80208333 3:0.39873418 4:0.85714286 \0A0.09249947071339552 1:0.45142857 2:0.80208333 3:0.65189873 4:0.85714286 \0A0.1282268295778642 1:0.47428571 2:0.40217391 3:0.34939759 4:0.85714286 \0A0.001598595574615017 1:0.47428571 2:0.40217391 3:0.39759036 4:0.85714286 \0A0.0027079213097985 1:0.47428571 2:0.5 3:0.39759036 4:0.85714286 \0A0.01094000021594465 1:0.47428571 2:0.65217391 3:0.65060241 4:0.85714286 \0A0.02298232609024991 1:0.47428571 2:0.70108696 3:0.65060241 4:0.85714286 \0A0.4296933716061567 1:0.47428571 2:0.79891304 3:0.19879518 4:0.85714286 \0A0.8343466157357079 1:0.5 2:0.2 3:0.2 4:0.85714286 \0A0.2523643947897962 1:0.5 2:0.25142857 3:0.74857143 4:0.85714286 \0A0.4142315803658484 1:0.5 2:0.4 3:0.6 4:0.85714286 \0A0.3018496837736072 1:0.5 2:0.4 3:0.65142857 4:0.85714286 \0A0.0002207790313124873 1:0.5 2:0.45142857 3:0.4 4:0.85714286 \0A0.008990049650869711 1:0.5 2:0.6 3:0.6 4:0.85714286 \0A0.05263990146615539 1:0.5 2:0.8 3:0.2 4:0.85714286 \0A0.3216141071195111 1:0.52571429 2:0.19879518 3:0.79891304 4:0.85714286 \0A0.3011568545021911 1:0.52571429 2:0.34939759 3:0.65217391 4:0.85714286 \0A0.3548605104929952 1:0.52571429 2:0.34939759 3:0.75 4:0.85714286 \0A0.01578506777975728 1:0.52571429 2:0.39759036 3:0.20108696 4:0.85714286 \0A0.01715414279907337 1:0.52571429 2:0.75301205 3:0.20108696 4:0.85714286 \0A0.5506114582683926 1:0.52571429 2:0.75301205 3:0.79891304 4:0.85714286 \0A0.0009666660785980828 1:0.55142857 2:0.29936306 3:0.79792746 4:0.85714286 \0A0.07844443501410032 1:0.55142857 2:0.35031847 3:0.20207254 4:0.85714286 \0A0.002182260890589953 1:0.55142857 2:0.35031847 3:0.79792746 4:0.85714286 \0A0.07956385038703545 1:0.55142857 2:0.5477707 3:0.20207254 4:0.85714286 \0A0.3205002115948544 1:0.55142857 2:0.64968153 3:0.79792746 4:0.85714286 \0A0.5635618037113714 1:0.55142857 2:0.70063694 3:0.79792746 4:0.85714286 \0A0.01813744218617384 1:0.57428571 2:0.40268456 3:0.19900498 4:0.85714286 \0A0.531148854251225 1:0.57428571 2:0.4966443 3:0.19900498 4:0.85714286 \0A0.1228966024883945 1:0.57428571 2:0.55033557 3:0.19900498 4:0.85714286 \0A0.08456581834615864 1:0.57428571 2:0.65100671 3:0.19900498 4:0.85714286 \0A-0.2488456036209035 1:0.6 2:0.25 3:0.5 4:0.85714286 \0A-0.4435084889722834 1:0.6 2:0.25 3:0.54761905 4:0.85714286 \0A-0.8345928987551059 1:0.6 2:0.3 3:0.5 4:0.85714286 \0A-0.2430580115790844 1:0.6 2:0.7 3:0.5 4:0.85714286 \0A-0.07133136063096064 1:0.6 2:0.75 3:0.5 4:0.85714286 \0A-0.1127187716029414 1:0.62571429 2:0.2519084 3:0.45205479 4:0.85714286 \0A-0.01206280303133767 1:0.62571429 2:0.2519084 3:0.49771689 4:0.85714286 \0A-1 1:0.62571429 2:0.2519084 3:0.54794521 4:0.85714286 \0A-0.06617187775307089 1:0.62571429 2:0.29770992 3:0.49771689 4:0.85714286 \0A-0.0211889620280756 1:0.62571429 2:0.64885496 3:0.49771689 4:0.85714286 \0A-0.2358266303011922 1:0.62571429 2:0.70229008 3:0.30136986 4:0.85714286 \0A-0.1174084939463452 1:0.62571429 2:0.70229008 3:0.54794521 4:0.85714286 \0A-1 1:0.62571429 2:0.7480916 3:0.54794521 4:0.85714286 \0A-0.5933492724293927 1:0.62571429 2:0.7480916 3:0.69863014 4:0.85714286 \0A-0.2102256430661912 1:0.65142857 2:0.25409836 3:0.60087719 4:0.85714286 \0A-0.002082227232839903 1:0.65142857 2:0.64754098 3:0.5 4:0.85714286 \0A-0.02504777965716789 1:0.65142857 2:0.80327869 3:0.25 4:0.85714286 \0A-0.1265138037680781 1:0.67428571 2:0.25438596 3:0.25 4:0.85714286 \0A-0.09040048893231334 1:0.67428571 2:0.25438596 3:0.69915254 4:0.85714286 \0A-1 1:0.67428571 2:0.25438596 3:0.75 4:0.85714286 \0A-1 1:0.67428571 2:0.29824561 3:0.25 4:0.85714286 \0A-0.124044199434486 1:0.67428571 2:0.29824561 3:0.69915254 4:0.85714286 \0A-0.4712389738651734 1:0.67428571 2:0.64912281 3:0.69915254 4:0.85714286 \0A-0.8985785571914334 1:0.67428571 2:0.70175439 3:0.25 4:0.85714286 \0A-1 1:0.67428571 2:0.75438596 3:0.25 4:0.85714286 \0A-0.02008988290526038 1:0.67428571 2:0.79824561 3:0.75 4:0.85714286 \0A-0.06749479863679134 1:0.7 2:0.2 3:0.24897959 4:0.85714286 \0A-0.2116589932740051 1:0.7 2:0.3047619 3:0.24897959 4:0.85714286 \0A-0.01270680354331095 1:0.7 2:0.35238095 3:0.24897959 4:0.85714286 \0A-0.2476868768683578 1:0.7 2:0.4 3:0.24897959 4:0.85714286 \0A-1 1:0.7 2:0.7047619 3:0.75102041 4:0.85714286 \0A-0.177226038197963 1:0.7 2:0.75238095 3:0.24897959 4:0.85714286 \0A-0.7036854230085693 1:0.7 2:0.75238095 3:0.75102041 4:0.85714286 \0A-0.002599878957436338 1:0.72571429 2:0.19791667 3:0.2519685 4:0.85714286 \0A0.5553476751488744 1:0.72571429 2:0.19791667 3:0.4015748 4:0.85714286 \0A-0.01002580419227577 1:0.72571429 2:0.25 3:0.2519685 4:0.85714286 \0A-0.2980767656719146 1:0.72571429 2:0.25 3:0.7519685 4:0.85714286 \0A-0.06719697119983729 1:0.72571429 2:0.30208333 3:0.7519685 4:0.85714286 \0A-0.3275892093015475 1:0.72571429 2:0.35416667 3:0.2519685 4:0.85714286 \0A-0.03050478002482472 1:0.72571429 2:0.69791667 3:0.7519685 4:0.85714286 \0A0.09366558925133391 1:0.72571429 2:0.80208333 3:0.4015748 4:0.85714286 \0A1 1:0.75142857 2:0.1954023 3:0.39923954 4:0.85714286 \0A1 1:0.75142857 2:0.1954023 3:0.5513308 4:0.85714286 \0A1 1:0.75142857 2:0.25287356 3:0.39923954 4:0.85714286 \0A0.7548424542608771 1:0.75142857 2:0.25287356 3:0.4486692 4:0.85714286 \0A0.5751555828244868 1:0.75142857 2:0.25287356 3:0.49809886 4:0.85714286 \0A1 1:0.75142857 2:0.25287356 3:0.60076046 4:0.85714286 \0A1 1:0.75142857 2:0.29885057 3:0.39923954 4:0.85714286 \0A-0.1486200869932708 1:0.75142857 2:0.34482759 3:0.20152091 4:0.85714286 \0A0.007660383136791137 1:0.75142857 2:0.34482759 3:0.60076046 4:0.85714286 \0A0.3583576259088807 1:0.75142857 2:0.49425287 3:0.60076046 4:0.85714286 \0A0.4801991654945708 1:0.75142857 2:0.55172414 3:0.39923954 4:0.85714286 \0A0.8441041300991878 1:0.75142857 2:0.70114943 3:0.49809886 4:0.85714286 \0A1 1:0.75142857 2:0.74712644 3:0.39923954 4:0.85714286 \0A0.309917918662752 1:0.75142857 2:0.74712644 3:0.4486692 4:0.85714286 \0A1 1:0.75142857 2:0.74712644 3:0.5513308 4:0.85714286 \0A0.4119164281399212 1:0.75142857 2:0.8045977 3:0.39923954 4:0.85714286 \0A0.02864435625264824 1:0.75142857 2:0.8045977 3:0.4486692 4:0.85714286 \0A1 1:0.75142857 2:0.8045977 3:0.5513308 4:0.85714286 \0A0.2090177831217086 1:0.77428571 2:0.20253165 3:0.60147601 4:0.85714286 \0A0.2967601798030067 1:0.77428571 2:0.25316456 3:0.35055351 4:0.85714286 \0A1 1:0.77428571 2:0.25316456 3:0.39852399 4:0.85714286 \0A0.1226401752491351 1:0.77428571 2:0.25316456 3:0.5498155 4:0.85714286 \0A0.1089346134758622 1:0.77428571 2:0.25316456 3:0.60147601 4:0.85714286 \0A0.001536588079682942 1:0.77428571 2:0.35443038 3:0.64944649 4:0.85714286 \0A0.07185555400458639 1:0.77428571 2:0.59493671 3:0.60147601 4:0.85714286 \0A0.004484529922136751 1:0.77428571 2:0.59493671 3:0.64944649 4:0.85714286 \0A0.001553007252178545 1:0.77428571 2:0.64556962 3:0.39852399 4:0.85714286 \0A0.5407059569140784 1:0.77428571 2:0.69620253 3:0.39852399 4:0.85714286 \0A0.1181015935779041 1:0.77428571 2:0.69620253 3:0.60147601 4:0.85714286 \0A0.6534752253511928 1:0.77428571 2:0.74683544 3:0.35055351 4:0.85714286 \0A0.05156169695670536 1:0.77428571 2:0.74683544 3:0.39852399 4:0.85714286 \0A0.01684974695714773 1:0.77428571 2:0.74683544 3:0.5498155 4:0.85714286 \0A1 1:0.77428571 2:0.74683544 3:0.60147601 4:0.85714286 \0A0.6988842941285649 1:0.77428571 2:0.79746835 3:0.35055351 4:0.85714286 \0A0.2257905895779414 1:0.77428571 2:0.79746835 3:0.60147601 4:0.85714286 \0A0.1331604254747003 1:0.77428571 2:0.79746835 3:0.64944649 4:0.85714286 \0A0.286561201541061 1:0.8 2:0.2 3:0.2 4:0.85714286 \0A-1 1:0.8 2:0.2 3:0.45 4:0.85714286 \0A-0.4446614518088314 1:0.8 2:0.2 3:0.5 4:0.85714286 \0A0.009844897220184006 1:0.8 2:0.25714286 3:0.65 4:0.85714286 \0A0.1947211367397144 1:0.8 2:0.4 3:0.65 4:0.85714286 \0A0.2241666247189819 1:0.8 2:0.75714286 3:0.65 4:0.85714286 \0A-0.2179287099307207 1:0.8 2:0.8 3:0.45 4:0.85714286 \0A-1 1:0.8 2:0.8 3:0.5 4:0.85714286 \0A0.7701382046363671 1:0.2 2:0.2 3:0.2 4:1 \0A0.022912806676384 1:0.2 2:0.2 3:0.55 4:1 \0A0.007204062692520255 1:0.2 2:0.2 3:0.65 4:1 \0A0.03395401032147928 1:0.2 2:0.2 3:0.8 4:1 \0A0.005299703845324283 1:0.2 2:0.25 3:0.55 4:1 \0A0.003125880171505727 1:0.2 2:0.25 3:0.6 4:1 \0A0.2783647026239084 1:0.2 2:0.25 3:0.8 4:1 \0A-0.4716423808737542 1:0.2 2:0.45 3:0.2 4:1 \0A-0.2734590453977904 1:0.2 2:0.45 3:0.7 4:1 \0A-0.07028503477929243 1:0.2 2:0.5 3:0.2 4:1 \0A-0.05017350694866365 1:0.2 2:0.5 3:0.75 4:1 \0A0.5186546710497647 1:0.2 2:0.7 3:0.2 4:1 \0A0.004645560524967936 1:0.2 2:0.7 3:0.45 4:1 \0A0.001353172908302549 1:0.2 2:0.75 3:0.4 4:1 \0A0.003406749978541838 1:0.2 2:0.75 3:0.5 4:1 \0A0.08622486459118847 1:0.2 2:0.75 3:0.6 4:1 \0A0.1017965163725525 1:0.2 2:0.75 3:0.8 4:1 \0A0.07658942430814428 1:0.2 2:0.8 3:0.8 4:1 \0A-0.4843176676550269 1:0.275 2:0.25172414 3:0.2 4:1 \0A-0.006136227295083907 1:0.275 2:0.75172414 3:0.25454545 4:1 \0A-0.001887771612514745 1:0.275 2:0.75172414 3:0.75454545 4:1 \0A-0.002956545153611366 1:0.3 2:0.25 3:0.2 4:1 \0A-0.05778072982023798 1:0.3 2:0.25 3:0.75 4:1 \0A-0.1077811657290382 1:0.325 2:0.25185185 3:0.2 4:1 \0A0.009278336488820262 1:0.325 2:0.44814815 3:0.35384615 4:1 \0A-0.03188703124654534 1:0.325 2:0.7 3:0.25384615 4:1 \0A-0.09743974820498237 1:0.35 2:0.7 3:0.25 4:1 \0A-0.05242498313990111 1:0.35 2:0.75 3:0.25 4:1 \0A0.03935646293484464 1:0.375 2:0.4 3:0.4 4:1 \0A0.01629838011267691 1:0.375 2:0.4 3:0.45333333 4:1 \0A0.1192411418537781 1:0.4 2:0.2 3:0.55 4:1 \0A0.01485863724009909 1:0.4 2:0.4 3:0.35 4:1 \0A0.1160490637113425 1:0.4 2:0.45 3:0.5 4:1 \0A0.03299635349014299 1:0.4 2:0.8 3:0.55 4:1 \0A0.007956533238726556 1:0.425 2:0.2 3:0.5 4:1 \0A0.02024089914480534 1:0.425 2:0.44782609 3:0.44705882 4:1 \0A0.02391431149676934 1:0.425 2:0.44782609 3:0.6 4:1 \0A0.03174219641038035 1:0.425 2:0.8 3:0.4 4:1 \0A0.02432377503766425 1:0.425 2:0.8 3:0.44705882 4:1 \0A0.02363694053946517 1:0.45 2:0.8 3:0.55 4:1 \0A0.001042736159722426 1:0.475 2:0.2 3:0.8 4:1 \0A0.1447975643701009 1:0.475 2:0.44761905 3:0.2 4:1 \0A0.1038593739161337 1:0.475 2:0.44761905 3:0.6 4:1 \0A0.1844812132607302 1:0.475 2:0.8 3:0.2 4:1 \0A0.04093814386745822 1:0.5 2:0.2 3:0.8 4:1 \0A0.05142898821652411 1:0.5 2:0.4 3:0.2 4:1 \0A0.002165661552251341 1:0.5 2:0.45 3:0.2 4:1 \0A0.00519431839200823 1:0.5 2:0.5 3:0.2 4:1 \0A0.1718653493752084 1:0.5 2:0.8 3:0.8 4:1 \0A0.4049712339593572 1:0.525 2:0.2 3:0.2 4:1 \0A0.14832728498623 1:0.525 2:0.2 3:0.8 4:1 \0A0.01100027845534088 1:0.525 2:0.35263158 3:0.8 4:1 \0A0.05651520976883886 1:0.525 2:0.54736842 3:0.2 4:1 \0A0.06091146364266471 1:0.525 2:0.65263158 3:0.8 4:1 \0A0.2762992443402494 1:0.55 2:0.45 3:0.8 4:1 \0A0.5257993965504466 1:0.55 2:0.6 3:0.2 4:1 \0A0.1938012762203732 1:0.55 2:0.65 3:0.8 4:1 \0A-0.04732871121984281 1:0.575 2:0.3 3:0.44782609 4:1 \0A-1 1:0.575 2:0.3 3:0.54782609 4:1 \0A0.04876195737874708 1:0.575 2:0.44705882 3:0.2 4:1 \0A-0.17247502590852 1:0.575 2:0.65294118 3:0.4 4:1 \0A-0.02949564419735785 1:0.6 2:0.25 3:0.55 4:1 \0A-0.07944313097997377 1:0.6 2:0.3 3:0.55 4:1 \0A-0.007423242548971131 1:0.6 2:0.35 3:0.45 4:1 \0A-0.006907327875827325 1:0.6 2:0.35 3:0.55 4:1 \0A-0.006865100690315262 1:0.6 2:0.4 3:0.5 4:1 \0A-0.003994656142166409 1:0.6 2:0.6 3:0.5 4:1 \0A-0.2843697251301747 1:0.6 2:0.7 3:0.5 4:1 \0A-0.1382891222607892 1:0.6 2:0.7 3:0.65 4:1 \0A-0.1058950421548418 1:0.6 2:0.75 3:0.7 4:1 \0A-0.01227909611307111 1:0.625 2:0.25333333 3:0.252 4:1 \0A-0.04316747796113499 1:0.625 2:0.25333333 3:0.652 4:1 \0A-0.1800465211948526 1:0.625 2:0.3 3:0.252 4:1 \0A-0.3378602416990719 1:0.625 2:0.3 3:0.548 4:1 \0A-0.02013321846626782 1:0.625 2:0.4 3:0.3 4:1 \0A-0.03065237333546398 1:0.625 2:0.4 3:0.448 4:1 \0A-0.003082092015115281 1:0.625 2:0.65333333 3:0.5 4:1 \0A-1 1:0.625 2:0.65333333 3:0.548 4:1 \0A-0.02311762179361539 1:0.625 2:0.65333333 3:0.652 4:1 \0A-0.1084896037828497 1:0.625 2:0.7 3:0.252 4:1 \0A-0.5375509877413922 1:0.625 2:0.7 3:0.3 4:1 \0A-0.00480943170214846 1:0.625 2:0.7 3:0.5 4:1 \0A-0.1318946959076682 1:0.625 2:0.75333333 3:0.3 4:1 \0A-1 1:0.65 2:0.25 3:0.25 4:1 \0A-0.004211555208391299 1:0.65 2:0.3 3:0.25 4:1 \0A-0.2293400078540429 1:0.65 2:0.3 3:0.65 4:1 \0A-0.004736591096826993 1:0.65 2:0.35 3:0.25 4:1 \0A-0.001279831412365493 1:0.65 2:0.5 3:0.3 4:1 \0A-0.001542137654182646 1:0.65 2:0.6 3:0.55 4:1 \0A-0.1036915794062673 1:0.65 2:0.6 3:0.7 4:1 \0A-1 1:0.65 2:0.65 3:0.25 4:1 \0A-0.06551477716126226 1:0.65 2:0.7 3:0.25 4:1 \0A-0.06613931630571263 1:0.65 2:0.7 3:0.7 4:1 \0A-0.2895275908723252 1:0.65 2:0.75 3:0.75 4:1 \0A-0.02432563932156021 1:0.65 2:0.8 3:0.7 4:1 \0A-0.005489093884508384 1:0.675 2:0.2 3:0.25185185 4:1 \0A-0.5101318600084738 1:0.675 2:0.25384615 3:0.75185185 4:1 \0A-0.2925830051653954 1:0.675 2:0.3 3:0.75185185 4:1 \0A-0.06702209214609454 1:0.675 2:0.35384615 3:0.25185185 4:1 \0A-0.01050359350112916 1:0.675 2:0.65384615 3:0.25185185 4:1 \0A-0.285954228358017 1:0.675 2:0.7 3:0.75185185 4:1 \0A-0.2119976736847874 1:0.7 2:0.2 3:0.25 4:1 \0A0.004210653049139839 1:0.7 2:0.2 3:0.45 4:1 \0A0.3029701164850029 1:0.7 2:0.2 3:0.5 4:1 \0A-0.07935876351705756 1:0.7 2:0.25 3:0.25 4:1 \0A-0.005833378759883277 1:0.7 2:0.4 3:0.25 4:1 \0A-0.7318370573478258 1:0.7 2:0.7 3:0.75 4:1 \0A-1 1:0.725 2:0.2 3:0.25172414 4:1 \0A0.002872605074246928 1:0.725 2:0.2 3:0.45172414 4:1 \0A0.6026875636179937 1:0.725 2:0.2 3:0.5 4:1 \0A0.8051189196894369 1:0.725 2:0.25454545 3:0.4 4:1 \0A1 1:0.725 2:0.25454545 3:0.45172414 4:1 \0A0.519762122601788 1:0.725 2:0.25454545 3:0.5 4:1 \0A0.3401037185533743 1:0.725 2:0.3 3:0.45172414 4:1 \0A0.9708763782257754 1:0.725 2:0.8 3:0.4 4:1 \0A0.336159430127944 1:0.725 2:0.8 3:0.6 4:1 \0A0.3181570100264368 1:0.75 2:0.2 3:0.6 4:1 \0A1 1:0.75 2:0.25 3:0.4 4:1 \0A1 1:0.75 2:0.25 3:0.45 4:1 \0A0.2772796779742901 1:0.75 2:0.25 3:0.5 4:1 \0A1 1:0.75 2:0.25 3:0.55 4:1 \0A0.3047767591702688 1:0.75 2:0.25 3:0.6 4:1 \0A0.008159285965778237 1:0.75 2:0.3 3:0.4 4:1 \0A0.4273531419079107 1:0.75 2:0.3 3:0.6 4:1 \0A0.04634433359752101 1:0.75 2:0.35 3:0.5 4:1 \0A0.2057967253695801 1:0.75 2:0.6 3:0.4 4:1 \0A1 1:0.75 2:0.6 3:0.55 4:1 \0A0.8702115064058801 1:0.75 2:0.65 3:0.6 4:1 \0A1 1:0.75 2:0.7 3:0.4 4:1 \0A1 1:0.75 2:0.7 3:0.45 4:1 \0A0.7128060380885816 1:0.75 2:0.7 3:0.5 4:1 \0A1 1:0.75 2:0.7 3:0.55 4:1 \0A1 1:0.75 2:0.7 3:0.6 4:1 \0A0.3014104995700555 1:0.75 2:0.75 3:0.35 4:1 \0A0.9481422857015841 1:0.75 2:0.75 3:0.4 4:1 \0A1 1:0.75 2:0.8 3:0.6 4:1 \0A0.06965804196080849 1:0.775 2:0.25555556 3:0.3516129 4:1 \0A0.1681580499760123 1:0.775 2:0.34444444 3:0.6 4:1 \0A0.01005580801730846 1:0.775 2:0.54444444 3:0.3516129 4:1 \0A0.5914353948629942 1:0.775 2:0.6 3:0.4 4:1 \0A0.02075841330356008 1:0.775 2:0.7 3:0.3516129 4:1 \0A0.04709816856807648 1:0.775 2:0.7 3:0.6 4:1 \0A1 1:0.8 2:0.2 3:0.2 4:1 \0A-0.1463880022275328 1:0.8 2:0.2 3:0.3 4:1 \0A-1 1:0.8 2:0.2 3:0.35 4:1 \0A-1 1:0.8 2:0.2 3:0.4 4:1 \0A-1 1:0.8 2:0.2 3:0.45 4:1 \0A-1 1:0.8 2:0.2 3:0.5 4:1 \0A-1 1:0.8 2:0.2 3:0.55 4:1 \0A0.6319473117775735 1:0.8 2:0.2 3:0.8 4:1 \0A1 1:0.8 2:0.25 3:0.2 4:1 \0A-1 1:0.8 2:0.25 3:0.45 4:1 \0A-1 1:0.8 2:0.25 3:0.5 4:1 \0A0.009428333112103825 1:0.8 2:0.3 3:0.2 4:1 \0A-0.2332948670645713 1:0.8 2:0.3 3:0.5 4:1 \0A-0.1496338278930457 1:0.8 2:0.4 3:0.45 4:1 \0A-0.5087834825808425 1:0.8 2:0.45 3:0.5 4:1 \0A0.00192176388767527 1:0.8 2:0.5 3:0.2 4:1 \0A-0.7111071952312533 1:0.8 2:0.5 3:0.45 4:1 \0A-0.01444407952319081 1:0.8 2:0.5 3:0.5 4:1 \0A0.07360896881238908 1:0.8 2:0.55 3:0.2 4:1 \0A-1 1:0.8 2:0.55 3:0.5 4:1 \0A0.2640513445664476 1:0.8 2:0.55 3:0.8 4:1 \0A0.1122599329843315 1:0.8 2:0.6 3:0.2 4:1 \0A-0.4434275352399362 1:0.8 2:0.6 3:0.5 4:1 \0A0.03478630367088049 1:0.8 2:0.65 3:0.2 4:1 \0A-1 1:0.8 2:0.65 3:0.5 4:1 \0A-1 1:0.8 2:0.7 3:0.5 4:1 \0A-1 1:0.8 2:0.75 3:0.45 4:1 \0A-1 1:0.8 2:0.75 3:0.5 4:1 \0A0.6796334291542261 1:0.8 2:0.8 3:0.2 4:1 \0A-0.1698672787287688 1:0.8 2:0.8 3:0.35 4:1 \0A-1 1:0.8 2:0.8 3:0.4 4:1 \0A-1 1:0.8 2:0.8 3:0.45 4:1 \0A-1 1:0.8 2:0.8 3:0.5 4:1 \0A-1 1:0.8 2:0.8 3:0.55 4:1 \0A-0.0310377630670289 1:0.8 2:0.8 3:0.6 4:1 \0A0.6119531131910538 1:0.8 2:0.8 3:0.8 4:1 \0A\00", align 1
@avg_model_string = dso_local global i8* getelementptr inbounds ([60559 x i8], [60559 x i8]* @.str, i32 0, i32 0), align 8
@.str.1 = private unnamed_addr constant [54409 x i8] c"svm_type nu_svr\0Akernel_type rbf\0Agamma 7\0Anr_class 2\0Atotal_sv 1060\0Arho -0.187768\0ASV\0A-0.7363563768676624 1:0.2 2:0.2 3:0.2 4:0 \0A-1 1:0.2 2:0.2 3:0.4 4:0 \0A-0.5817626972471229 1:0.2 2:0.2 3:0.6 4:0 \0A-0.4178464036231969 1:0.2 2:0.25 3:0.7 4:0 \0A0.07807074474787239 1:0.2 2:0.3 3:0.4 4:0 \0A0.9523642403699546 1:0.2 2:0.55 3:0.7 4:0 \0A0.6398678471913775 1:0.2 2:0.65 3:0.2 4:0 \0A-1 1:0.2 2:0.75 3:0.2 4:0 \0A-1 1:0.2 2:0.75 3:0.4 4:0 \0A-0.4313097127070922 1:0.2 2:0.75 3:0.6 4:0 \0A-0.4870752319526939 1:0.2 2:0.75 3:0.8 4:0 \0A-0.6950639820227301 1:0.22 2:0.20512821 3:0.72727273 4:0 \0A0.9771153944690636 1:0.22 2:0.30769231 3:0.45454545 4:0 \0A0.4925134087753923 1:0.22 2:0.41025641 3:0.18181818 4:0 \0A-0.2487246380748831 1:0.22 2:0.79487179 3:0.18181818 4:0 \0A-1 1:0.22 2:0.79487179 3:0.36363636 4:0 \0A-0.6547084088405088 1:0.22 2:0.79487179 3:0.45454545 4:0 \0A-1 1:0.26 2:0.18918919 3:0.69230769 4:0 \0A0.6065056116371278 1:0.26 2:0.24324324 3:0.61538462 4:0 \0A0.1644717660251948 1:0.26 2:0.40540541 3:0.76923077 4:0 \0A1 1:0.26 2:0.7027027 3:0.30769231 4:0 \0A0.9898992118889675 1:0.26 2:0.75675676 3:0.38461538 4:0 \0A-0.9366794506156393 1:0.28 2:0.44444444 3:0.57142857 4:0 \0A-1 1:0.28 2:0.55555556 3:0.5 4:0 \0A0.8603145833954182 1:0.28 2:0.61111111 3:0.21428571 4:0 \0A1 1:0.28 2:0.69444444 3:0.42857143 4:0 \0A0.5396227936950618 1:0.3 2:0.2 3:0.4 4:0 \0A1 1:0.3 2:0.31428571 3:0.66666667 4:0 \0A1 1:0.3 2:0.71428571 3:0.4 4:0 \0A-1 1:0.3 2:0.8 3:0.2 4:0 \0A1 1:0.32 2:0.20588235 3:0.375 4:0 \0A0.8363269611810621 1:0.32 2:0.26470588 3:0.1875 4:0 \0A1 1:0.32 2:0.26470588 3:0.75 4:0 \0A1 1:0.32 2:0.41176471 3:0.3125 4:0 \0A-1 1:0.32 2:0.44117647 3:0.1875 4:0 \0A1 1:0.32 2:0.5 3:0.4375 4:0 \0A-1 1:0.32 2:0.55882353 3:0.8125 4:0 \0A1 1:0.32 2:0.70588235 3:0.375 4:0 \0A-0.2716257869415996 1:0.32 2:0.79411765 3:0.1875 4:0 \0A1 1:0.36 2:0.25 3:0.72222222 4:0 \0A0.9460857435038026 1:0.36 2:0.3125 3:0.44444444 4:0 \0A1 1:0.36 2:0.3125 3:0.55555556 4:0 \0A-1 1:0.36 2:0.34375 3:0.38888889 4:0 \0A-1 1:0.36 2:0.40625 3:0.33333333 4:0 \0A-1 1:0.36 2:0.5 3:0.44444444 4:0 \0A0.4666911153940065 1:0.38 2:0.19354839 3:0.21052632 4:0 \0A-0.3679093797612711 1:0.38 2:0.19354839 3:0.78947368 4:0 \0A-1 1:0.38 2:0.25806452 3:0.31578947 4:0 \0A-1 1:0.38 2:0.35483871 3:0.31578947 4:0 \0A-0.5244997336393352 1:0.38 2:0.38709677 3:0.36842105 4:0 \0A-0.5942033352043439 1:0.38 2:0.38709677 3:0.63157895 4:0 \0A0.6553693633612112 1:0.38 2:0.5483871 3:0.26315789 4:0 \0A1 1:0.38 2:0.5483871 3:0.57894737 4:0 \0A-0.9532572502392046 1:0.38 2:0.61290323 3:0.42105263 4:0 \0A-1 1:0.38 2:0.64516129 3:0.31578947 4:0 \0A0.9181216030006814 1:0.38 2:0.70967742 3:0.21052632 4:0 \0A0.8406182491140477 1:0.38 2:0.70967742 3:0.26315789 4:0 \0A1 1:0.4 2:0.3 3:0.3 4:0 \0A-0.9364696955414865 1:0.4 2:0.53333333 3:0.2 4:0 \0A-1 1:0.4 2:0.6 3:0.35 4:0 \0A-1 1:0.4 2:0.66666667 3:0.35 4:0 \0A0.658077614573009 1:0.4 2:0.7 3:0.75 4:0 \0A-0.9923478684628275 1:0.42 2:0.20689655 3:0.42857143 4:0 \0A1 1:0.42 2:0.24137931 3:0.28571429 4:0 \0A-1 1:0.42 2:0.24137931 3:0.80952381 4:0 \0A0.2745417674520128 1:0.42 2:0.31034483 3:0.71428571 4:0 \0A-1 1:0.42 2:0.34482759 3:0.47619048 4:0 \0A-1 1:0.42 2:0.34482759 3:0.61904762 4:0 \0A-0.8980326499738261 1:0.42 2:0.34482759 3:0.80952381 4:0 \0A0.07029237206620208 1:0.42 2:0.4137931 3:0.76190476 4:0 \0A1 1:0.42 2:0.44827586 3:0.47619048 4:0 \0A0.01638387273179614 1:0.42 2:0.55172414 3:0.76190476 4:0 \0A-0.9920292514815255 1:0.42 2:0.65517241 3:0.33333333 4:0 \0A0.2902237946267846 1:0.42 2:0.65517241 3:0.66666667 4:0 \0A1 1:0.42 2:0.75862069 3:0.76190476 4:0 \0A0.1906634538436009 1:0.42 2:0.79310345 3:0.57142857 4:0 \0A-0.04833178027831733 1:0.42 2:0.79310345 3:0.80952381 4:0 \0A-0.3907742563155945 1:0.46 2:0.18518519 3:0.2173913 4:0 \0A1 1:0.46 2:0.18518519 3:0.69565217 4:0 \0A-1 1:0.46 2:0.2962963 3:0.30434783 4:0 \0A-1 1:0.46 2:0.2962963 3:0.60869565 4:0 \0A1 1:0.46 2:0.40740741 3:0.43478261 4:0 \0A1 1:0.46 2:0.44444444 3:0.43478261 4:0 \0A-1 1:0.46 2:0.44444444 3:0.56521739 4:0 \0A-1 1:0.46 2:0.48148148 3:0.65217391 4:0 \0A-1 1:0.46 2:0.55555556 3:0.60869565 4:0 \0A1 1:0.46 2:0.55555556 3:0.65217391 4:0 \0A0.8448819072349042 1:0.46 2:0.59259259 3:0.47826087 4:0 \0A-0.3714223663291514 1:0.46 2:0.66666667 3:0.47826087 4:0 \0A-1 1:0.46 2:0.66666667 3:0.65217391 4:0 \0A0.4006138837863371 1:0.46 2:0.74074074 3:0.69565217 4:0 \0A0.0538378782246542 1:0.46 2:0.81481481 3:0.30434783 4:0 \0A-1 1:0.48 2:0.19230769 3:0.29166667 4:0 \0A0.01972706150638374 1:0.48 2:0.30769231 3:0.20833333 4:0 \0A-1 1:0.48 2:0.34615385 3:0.41666667 4:0 \0A0.851940977873443 1:0.48 2:0.34615385 3:0.54166667 4:0 \0A1 1:0.48 2:0.46153846 3:0.58333333 4:0 \0A1 1:0.48 2:0.76923077 3:0.33333333 4:0 \0A-1 1:0.48 2:0.80769231 3:0.79166667 4:0 \0A0.08737037115441017 1:0.5 2:0.2 3:0.72 4:0 \0A-0.4224730313050076 1:0.5 2:0.2 3:0.8 4:0 \0A1 1:0.5 2:0.32 3:0.76 4:0 \0A1 1:0.5 2:0.4 3:0.44 4:0 \0A-1 1:0.5 2:0.44 3:0.44 4:0 \0A0.6904008998969356 1:0.5 2:0.44 3:0.56 4:0 \0A-1 1:0.5 2:0.44 3:0.6 4:0 \0A-0.004380864230783311 1:0.5 2:0.64 3:0.56 4:0 \0A-1 1:0.5 2:0.72 3:0.8 4:0 \0A-1 1:0.5 2:0.8 3:0.48 4:0 \0A-0.6346423135556399 1:0.52 2:0.20833333 3:0.80769231 4:0 \0A0.9850633403914929 1:0.52 2:0.29166667 3:0.76923077 4:0 \0A1 1:0.52 2:0.33333333 3:0.30769231 4:0 \0A0.5949274112576541 1:0.52 2:0.33333333 3:0.46153846 4:0 \0A1 1:0.52 2:0.41666667 3:0.26923077 4:0 \0A1 1:0.52 2:0.45833333 3:0.30769231 4:0 \0A0.08668357542314302 1:0.52 2:0.5 3:0.19230769 4:0 \0A0.0517982341325497 1:0.52 2:0.5 3:0.65384615 4:0 \0A1 1:0.52 2:0.54166667 3:0.46153846 4:0 \0A-0.1280547510237239 1:0.52 2:0.66666667 3:0.19230769 4:0 \0A-0.3356880461332991 1:0.52 2:0.66666667 3:0.34615385 4:0 \0A-0.07575318986456843 1:0.56 2:0.18181818 3:0.60714286 4:0 \0A1 1:0.56 2:0.27272727 3:0.39285714 4:0 \0A-1 1:0.56 2:0.27272727 3:0.60714286 4:0 \0A-1 1:0.56 2:0.31818182 3:0.21428571 4:0 \0A-1 1:0.56 2:0.31818182 3:0.46428571 4:0 \0A-0.2905756973820707 1:0.56 2:0.36363636 3:0.21428571 4:0 \0A-1 1:0.56 2:0.36363636 3:0.46428571 4:0 \0A1 1:0.56 2:0.36363636 3:0.53571429 4:0 \0A-1 1:0.56 2:0.63636364 3:0.35714286 4:0 \0A1 1:0.56 2:0.68181818 3:0.75 4:0 \0A0.09348882192165238 1:0.56 2:0.77272727 3:0.64285714 4:0 \0A1 1:0.56 2:0.77272727 3:0.75 4:0 \0A0.3166998678005198 1:0.56 2:0.81818182 3:0.71428571 4:0 \0A-0.4260517271618464 1:0.58 2:0.19047619 3:0.44827586 4:0 \0A1 1:0.58 2:0.19047619 3:0.48275862 4:0 \0A1 1:0.58 2:0.23809524 3:0.4137931 4:0 \0A-0.9925301847251352 1:0.58 2:0.28571429 3:0.5862069 4:0 \0A0.6497271665147746 1:0.58 2:0.42857143 3:0.4137931 4:0 \0A1 1:0.58 2:0.66666667 3:0.75862069 4:0 \0A1 1:0.58 2:0.80952381 3:0.4137931 4:0 \0A-0.4717024472816282 1:0.58 2:0.80952381 3:0.44827586 4:0 \0A0.2854282084898161 1:0.58 2:0.80952381 3:0.55172414 4:0 \0A0.3310846395375033 1:0.6 2:0.35 3:0.43333333 4:0 \0A1 1:0.6 2:0.35 3:0.5 4:0 \0A1 1:0.6 2:0.35 3:0.53333333 4:0 \0A-1 1:0.6 2:0.45 3:0.4 4:0 \0A-1 1:0.6 2:0.5 3:0.6 4:0 \0A1 1:0.6 2:0.55 3:0.6 4:0 \0A1 1:0.6 2:0.6 3:0.3 4:0 \0A0.8821905929437969 1:0.6 2:0.65 3:0.3 4:0 \0A-1 1:0.6 2:0.65 3:0.66666667 4:0 \0A1 1:0.6 2:0.65 3:0.76666667 4:0 \0A-0.6060756704341599 1:0.6 2:0.65 3:0.8 4:0 \0A1 1:0.6 2:0.7 3:0.4 4:0 \0A1 1:0.6 2:0.7 3:0.43333333 4:0 \0A-0.004793770874371793 1:0.6 2:0.8 3:0.8 4:0 \0A1 1:0.62 2:0.21052632 3:0.29032258 4:0 \0A1 1:0.62 2:0.21052632 3:0.70967742 4:0 \0A1 1:0.62 2:0.21052632 3:0.74193548 4:0 \0A0.0299021110057953 1:0.62 2:0.31578947 3:0.48387097 4:0 \0A-1 1:0.62 2:0.42105263 3:0.5483871 4:0 \0A-0.1545424353917149 1:0.62 2:0.42105263 3:0.80645161 4:0 \0A1 1:0.62 2:0.47368421 3:0.74193548 4:0 \0A-0.2581478467317246 1:0.62 2:0.52631579 3:0.38709677 4:0 \0A0.5074921703322104 1:0.62 2:0.52631579 3:0.4516129 4:0 \0A-0.3437154540569268 1:0.62 2:0.57894737 3:0.29032258 4:0 \0A-1 1:0.62 2:0.57894737 3:0.80645161 4:0 \0A-1 1:0.62 2:0.63157895 3:0.38709677 4:0 \0A1 1:0.62 2:0.68421053 3:0.48387097 4:0 \0A-0.2442209513782373 1:0.62 2:0.73684211 3:0.64516129 4:0 \0A-1 1:0.62 2:0.78947368 3:0.70967742 4:0 \0A-1 1:0.62 2:0.78947368 3:0.80645161 4:0 \0A-1 1:0.66 2:0.17647059 3:0.63636364 4:0 \0A-1 1:0.66 2:0.29411765 3:0.48484848 4:0 \0A-1 1:0.66 2:0.35294118 3:0.45454545 4:0 \0A0.1524267994692118 1:0.66 2:0.41176471 3:0.3030303 4:0 \0A1 1:0.66 2:0.41176471 3:0.60606061 4:0 \0A0.2791149611531762 1:0.66 2:0.47058824 3:0.75757576 4:0 \0A1 1:0.66 2:0.52941176 3:0.24242424 4:0 \0A-1 1:0.66 2:0.52941176 3:0.45454545 4:0 \0A-1 1:0.66 2:0.58823529 3:0.21212121 4:0 \0A-1 1:0.66 2:0.58823529 3:0.54545455 4:0 \0A-1 1:0.66 2:0.70588235 3:0.36363636 4:0 \0A-0.6436259558106683 1:0.66 2:0.76470588 3:0.21212121 4:0 \0A-1 1:0.66 2:0.76470588 3:0.63636364 4:0 \0A0.1271433494957664 1:0.68 2:0.1875 3:0.5 4:0 \0A-1 1:0.68 2:0.1875 3:0.79411765 4:0 \0A-1 1:0.68 2:0.25 3:0.41176471 4:0 \0A-1 1:0.68 2:0.3125 3:0.55882353 4:0 \0A1 1:0.68 2:0.3125 3:0.70588235 4:0 \0A0.1480043942705204 1:0.68 2:0.375 3:0.70588235 4:0 \0A-1 1:0.68 2:0.4375 3:0.35294118 4:0 \0A0.9365230229594439 1:0.68 2:0.5625 3:0.5 4:0 \0A-0.008516292609770578 1:0.68 2:0.6875 3:0.44117647 4:0 \0A-1 1:0.68 2:0.6875 3:0.5 4:0 \0A-1 1:0.68 2:0.75 3:0.58823529 4:0 \0A1 1:0.68 2:0.8125 3:0.76470588 4:0 \0A-0.001432571849798507 1:0.68 2:0.8125 3:0.79411765 4:0 \0A-0.3554903896331749 1:0.7 2:0.26666667 3:0.54285714 4:0 \0A1 1:0.7 2:0.46666667 3:0.34285714 4:0 \0A-1 1:0.7 2:0.53333333 3:0.48571429 4:0 \0A1 1:0.7 2:0.6 3:0.45714286 4:0 \0A1 1:0.7 2:0.66666667 3:0.71428571 4:0 \0A-1 1:0.7 2:0.66666667 3:0.8 4:0 \0A-1 1:0.7 2:0.73333333 3:0.34285714 4:0 \0A0.2070556056571206 1:0.72 2:0.21428571 3:0.30555556 4:0 \0A-1 1:0.72 2:0.21428571 3:0.80555556 4:0 \0A1 1:0.72 2:0.28571429 3:0.55555556 4:0 \0A-0.9122445886983376 1:0.72 2:0.28571429 3:0.80555556 4:0 \0A-1 1:0.72 2:0.42857143 3:0.44444444 4:0 \0A1 1:0.72 2:0.64285714 3:0.30555556 4:0 \0A-1 1:0.72 2:0.71428571 3:0.44444444 4:0 \0A1 1:0.72 2:0.71428571 3:0.5 4:0 \0A1 1:0.72 2:0.78571429 3:0.75 4:0 \0A-1 1:0.72 2:0.78571429 3:0.80555556 4:0 \0A1 1:0.76 2:0.16666667 3:0.76315789 4:0 \0A-1 1:0.76 2:0.33333333 3:0.34210526 4:0 \0A1 1:0.76 2:0.41666667 3:0.34210526 4:0 \0A-1 1:0.76 2:0.41666667 3:0.5 4:0 \0A0.3432488098085674 1:0.76 2:0.5 3:0.60526316 4:0 \0A0.7462270587993467 1:0.76 2:0.75 3:0.34210526 4:0 \0A1 1:0.76 2:0.75 3:0.71052632 4:0 \0A0.3318962452637436 1:0.76 2:0.83333333 3:0.26315789 4:0 \0A0.3948659537459074 1:0.76 2:0.83333333 3:0.71052632 4:0 \0A0.2143333521924379 1:0.78 2:0.18181818 3:0.25641026 4:0 \0A-0.3407614661319019 1:0.78 2:0.27272727 3:0.46153846 4:0 \0A1 1:0.78 2:0.27272727 3:0.53846154 4:0 \0A-1 1:0.78 2:0.27272727 3:0.58974359 4:0 \0A-0.5288027535957321 1:0.78 2:0.27272727 3:0.69230769 4:0 \0A1 1:0.78 2:0.36363636 3:0.30769231 4:0 \0A1 1:0.78 2:0.45454545 3:0.46153846 4:0 \0A-1 1:0.78 2:0.63636364 3:0.41025641 4:0 \0A-0.04344357111417033 1:0.78 2:0.63636364 3:0.53846154 4:0 \0A1 1:0.78 2:0.63636364 3:0.58974359 4:0 \0A-1 1:0.78 2:0.63636364 3:0.69230769 4:0 \0A0.1994254430552846 1:0.78 2:0.81818182 3:0.58974359 4:0 \0A0.005659180594987566 1:0.78 2:0.81818182 3:0.69230769 4:0 \0A0.8381087643483256 1:0.8 2:0.2 3:0.5 4:0 \0A1 1:0.8 2:0.2 3:0.75 4:0 \0A-0.184642318063764 1:0.8 2:0.2 3:0.8 4:0 \0A1 1:0.8 2:0.3 3:0.45 4:0 \0A-1 1:0.8 2:0.3 3:0.55 4:0 \0A1 1:0.8 2:0.3 3:0.6 4:0 \0A-1 1:0.8 2:0.4 3:0.25 4:0 \0A0.585221005633252 1:0.8 2:0.5 3:0.5 4:0 \0A-1 1:0.8 2:0.6 3:0.7 4:0 \0A0.2941193604796581 1:0.8 2:0.6 3:0.8 4:0 \0A0.1592012573097206 1:0.8 2:0.7 3:0.2 4:0 \0A1 1:0.8 2:0.7 3:0.65 4:0 \0A-0.05520193805896165 1:0.8 2:0.8 3:0.3 4:0 \0A0.9676978202167011 1:0.8 2:0.8 3:0.5 4:0 \0A-1 1:0.8 2:0.8 3:0.65 4:0 \0A1 1:0.2 2:0.25 3:0.55 4:0.14285714 \0A1 1:0.2 2:0.25 3:0.75 4:0.14285714 \0A0.0135812449218331 1:0.2 2:0.25 3:0.8 4:0.14285714 \0A-0.8026014410769956 1:0.2 2:0.3 3:0.4 4:0.14285714 \0A-0.7685256146757016 1:0.2 2:0.3 3:0.6 4:0.14285714 \0A0.9775756677521732 1:0.2 2:0.35 3:0.4 4:0.14285714 \0A0.4012079565297025 1:0.2 2:0.35 3:0.8 4:0.14285714 \0A0.084205326941587 1:0.2 2:0.4 3:0.2 4:0.14285714 \0A-0.9325615875333091 1:0.2 2:0.6 3:0.25 4:0.14285714 \0A-0.5090757378913543 1:0.2 2:0.6 3:0.55 4:0.14285714 \0A0.3145545343993413 1:0.2 2:0.65 3:0.5 4:0.14285714 \0A1 1:0.2 2:0.7 3:0.25 4:0.14285714 \0A0.9013755166996397 1:0.2 2:0.7 3:0.5 4:0.14285714 \0A0.6994024769900444 1:0.2 2:0.7 3:0.8 4:0.14285714 \0A1 1:0.2 2:0.75 3:0.35 4:0.14285714 \0A-0.6235990890611504 1:0.2 2:0.8 3:0.65 4:0.14285714 \0A0.2958250027729296 1:0.23 2:0.4025974 3:0.30434783 4:0.14285714 \0A-0.2192056942899054 1:0.23 2:0.4025974 3:0.34782609 4:0.14285714 \0A-1 1:0.23 2:0.54545455 3:0.2173913 4:0.14285714 \0A-1 1:0.23 2:0.5974026 3:0.34782609 4:0.14285714 \0A0.8422731689814177 1:0.23 2:0.7012987 3:0.60869565 4:0.14285714 \0A1 1:0.23 2:0.75324675 3:0.2173913 4:0.14285714 \0A0.7191435535347683 1:0.23 2:0.75324675 3:0.26086957 4:0.14285714 \0A0.8036040151192584 1:0.25 2:0.2 3:0.32 4:0.14285714 \0A0.0531837268725287 1:0.25 2:0.2 3:0.48 4:0.14285714 \0A0.07948171232753268 1:0.25 2:0.25333333 3:0.72 4:0.14285714 \0A-1 1:0.25 2:0.30666667 3:0.48 4:0.14285714 \0A1 1:0.25 2:0.4 3:0.24 4:0.14285714 \0A-1 1:0.25 2:0.4 3:0.72 4:0.14285714 \0A-1 1:0.25 2:0.65333333 3:0.32 4:0.14285714 \0A-0.2889520237414525 1:0.25 2:0.8 3:0.2 4:0.14285714 \0A1 1:0.28 2:0.25 3:0.60714286 4:0.14285714 \0A1 1:0.28 2:0.69444444 3:0.60714286 4:0.14285714 \0A1 1:0.28 2:0.75 3:0.21428571 4:0.14285714 \0A-0.2464607732202429 1:0.3 2:0.25714286 3:0.2 4:0.14285714 \0A-0.6712518318458536 1:0.3 2:0.35714286 3:0.4 4:0.14285714 \0A-0.1282745858845328 1:0.3 2:0.5 3:0.3 4:0.14285714 \0A-0.4303798348941193 1:0.3 2:0.6 3:0.36666667 4:0.14285714 \0A0.3061341905860213 1:0.33 2:0.19402985 3:0.60606061 4:0.14285714 \0A1 1:0.33 2:0.25373134 3:0.75757576 4:0.14285714 \0A-1 1:0.33 2:0.34328358 3:0.60606061 4:0.14285714 \0A-1 1:0.33 2:0.49253731 3:0.24242424 4:0.14285714 \0A-0.1916075978069539 1:0.33 2:0.70149254 3:0.39393939 4:0.14285714 \0A-0.8107959204598276 1:0.33 2:0.74626866 3:0.45454545 4:0.14285714 \0A1 1:0.33 2:0.80597015 3:0.45454545 4:0.14285714 \0A0.03383131775163409 1:0.33 2:0.80597015 3:0.60606061 4:0.14285714 \0A1 1:0.35 2:0.44615385 3:0.48571429 4:0.14285714 \0A-0.8410280016447177 1:0.35 2:0.6 3:0.65714286 4:0.14285714 \0A-1 1:0.35 2:0.70769231 3:0.34285714 4:0.14285714 \0A0.5900178416694913 1:0.38 2:0.19354839 3:0.34210526 4:0.14285714 \0A-1 1:0.38 2:0.25806452 3:0.26315789 4:0.14285714 \0A1 1:0.38 2:0.25806452 3:0.34210526 4:0.14285714 \0A-0.7412654209023689 1:0.38 2:0.25806452 3:0.39473684 4:0.14285714 \0A-1 1:0.38 2:0.30645161 3:0.5 4:0.14285714 \0A-0.235475636679371 1:0.38 2:0.35483871 3:0.39473684 4:0.14285714 \0A0.3141595494818585 1:0.38 2:0.40322581 3:0.5 4:0.14285714 \0A-0.05407698055811676 1:0.38 2:0.40322581 3:0.55263158 4:0.14285714 \0A1 1:0.38 2:0.4516129 3:0.28947368 4:0.14285714 \0A-1 1:0.38 2:0.69354839 3:0.60526316 4:0.14285714 \0A0.07137123820619147 1:0.38 2:0.75806452 3:0.71052632 4:0.14285714 \0A1 1:0.4 2:0.45 3:0.25 4:0.14285714 \0A0.413986588069465 1:0.4 2:0.45 3:0.55 4:0.14285714 \0A0.3359383378486254 1:0.4 2:0.55 3:0.5 4:0.14285714 \0A0.1256586161151745 1:0.4 2:0.65 3:0.7 4:0.14285714 \0A0.00252607753861751 1:0.4 2:0.75 3:0.45 4:0.14285714 \0A-0.2144156128093337 1:0.43 2:0.29824561 3:0.65116279 4:0.14285714 \0A-0.7087597365855008 1:0.43 2:0.29824561 3:0.69767442 4:0.14285714 \0A1 1:0.43 2:0.40350877 3:0.44186047 4:0.14285714 \0A1 1:0.43 2:0.40350877 3:0.74418605 4:0.14285714 \0A1 1:0.43 2:0.59649123 3:0.30232558 4:0.14285714 \0A-1 1:0.43 2:0.64912281 3:0.30232558 4:0.14285714 \0A-1 1:0.43 2:0.70175439 3:0.65116279 4:0.14285714 \0A-1 1:0.45 2:0.25454545 3:0.44444444 4:0.14285714 \0A-1 1:0.45 2:0.30909091 3:0.24444444 4:0.14285714 \0A-1 1:0.45 2:0.34545455 3:0.71111111 4:0.14285714 \0A1 1:0.45 2:0.45454545 3:0.44444444 4:0.14285714 \0A0.5215742201315625 1:0.45 2:0.45454545 3:0.75555556 4:0.14285714 \0A-0.05451925094449037 1:0.45 2:0.65454545 3:0.31111111 4:0.14285714 \0A-0.2890098682620317 1:0.45 2:0.65454545 3:0.48888889 4:0.14285714 \0A1 1:0.45 2:0.70909091 3:0.48888889 4:0.14285714 \0A-0.9349799701267902 1:0.48 2:0.75 3:0.54166667 4:0.14285714 \0A0.4758927948722542 1:0.48 2:0.75 3:0.79166667 4:0.14285714 \0A-1 1:0.5 2:0.26 3:0.66 4:0.14285714 \0A-1 1:0.5 2:0.4 3:0.54 4:0.14285714 \0A-0.3058869998982018 1:0.5 2:0.44 3:0.4 4:0.14285714 \0A-1 1:0.5 2:0.5 3:0.4 4:0.14285714 \0A1 1:0.5 2:0.66 3:0.26 4:0.14285714 \0A0.8303820099239545 1:0.53 2:0.19148936 3:0.75471698 4:0.14285714 \0A1 1:0.53 2:0.25531915 3:0.20754717 4:0.14285714 \0A0.1114349604130157 1:0.53 2:0.25531915 3:0.24528302 4:0.14285714 \0A0.008105863078445264 1:0.53 2:0.29787234 3:0.79245283 4:0.14285714 \0A1 1:0.53 2:0.44680851 3:0.24528302 4:0.14285714 \0A-1 1:0.53 2:0.55319149 3:0.49056604 4:0.14285714 \0A0.7086960866800173 1:0.53 2:0.55319149 3:0.79245283 4:0.14285714 \0A0.3601005783740542 1:0.53 2:0.59574468 3:0.69811321 4:0.14285714 \0A-0.3376548789646864 1:0.53 2:0.74468085 3:0.24528302 4:0.14285714 \0A-1 1:0.55 2:0.31111111 3:0.4 4:0.14285714 \0A1 1:0.55 2:0.35555556 3:0.49090909 4:0.14285714 \0A-1 1:0.55 2:0.4 3:0.34545455 4:0.14285714 \0A-1 1:0.55 2:0.44444444 3:0.45454545 4:0.14285714 \0A-0.1014765660528771 1:0.55 2:0.44444444 3:0.65454545 4:0.14285714 \0A1 1:0.55 2:0.48888889 3:0.6 4:0.14285714 \0A-0.9063870089311084 1:0.55 2:0.71111111 3:0.34545455 4:0.14285714 \0A1 1:0.55 2:0.71111111 3:0.49090909 4:0.14285714 \0A-1 1:0.55 2:0.75555556 3:0.30909091 4:0.14285714 \0A1 1:0.58 2:0.45238095 3:0.5 4:0.14285714 \0A1 1:0.58 2:0.45238095 3:0.55172414 4:0.14285714 \0A-1 1:0.58 2:0.45238095 3:0.65517241 4:0.14285714 \0A-0.4973715725957024 1:0.58 2:0.5 3:0.20689655 4:0.14285714 \0A-0.7771073676239159 1:0.58 2:0.54761905 3:0.29310345 4:0.14285714 \0A1 1:0.58 2:0.69047619 3:0.29310345 4:0.14285714 \0A0.08248852075435595 1:0.58 2:0.76190476 3:0.5 4:0.14285714 \0A1 1:0.6 2:0.5 3:0.5 4:0.14285714 \0A-1 1:0.6 2:0.6 3:0.5 4:0.14285714 \0A1 1:0.6 2:0.65 3:0.45 4:0.14285714 \0A-0.003486673199532867 1:0.6 2:0.7 3:0.65 4:0.14285714 \0A0.1122273763084038 1:0.6 2:0.75 3:0.6 4:0.14285714 \0A1 1:0.63 2:0.18918919 3:0.44444444 4:0.14285714 \0A1 1:0.63 2:0.24324324 3:0.49206349 4:0.14285714 \0A0.2321579262749023 1:0.63 2:0.2972973 3:0.55555556 4:0.14285714 \0A-1 1:0.63 2:0.2972973 3:0.6031746 4:0.14285714 \0A-0.01636137455530932 1:0.63 2:0.2972973 3:0.65079365 4:0.14285714 \0A-1 1:0.63 2:0.40540541 3:0.34920635 4:0.14285714 \0A-0.5597514498395699 1:0.63 2:0.45945946 3:0.6031746 4:0.14285714 \0A-1 1:0.63 2:0.48648649 3:0.65079365 4:0.14285714 \0A-1 1:0.63 2:0.59459459 3:0.6984127 4:0.14285714 \0A0.06433561841474116 1:0.63 2:0.64864865 3:0.20634921 4:0.14285714 \0A-0.07691991093928076 1:0.63 2:0.64864865 3:0.6984127 4:0.14285714 \0A-0.01873148930413057 1:0.63 2:0.81081081 3:0.20634921 4:0.14285714 \0A1 1:0.65 2:0.31428571 3:0.44615385 4:0.14285714 \0A1 1:0.65 2:0.34285714 3:0.49230769 4:0.14285714 \0A1 1:0.65 2:0.4 3:0.30769231 4:0.14285714 \0A-1 1:0.65 2:0.45714286 3:0.35384615 4:0.14285714 \0A-1 1:0.65 2:0.48571429 3:0.64615385 4:0.14285714 \0A1 1:0.65 2:0.54285714 3:0.44615385 4:0.14285714 \0A0.3480305908398122 1:0.65 2:0.65714286 3:0.4 4:0.14285714 \0A0.6868904453565011 1:0.65 2:0.8 3:0.24615385 4:0.14285714 \0A-0.1104392735732009 1:0.65 2:0.8 3:0.8 4:0.14285714 \0A-1 1:0.68 2:0.1875 3:0.45588235 4:0.14285714 \0A-1 1:0.68 2:0.3125 3:0.35294118 4:0.14285714 \0A1 1:0.68 2:0.3125 3:0.39705882 4:0.14285714 \0A0.9468809409993679 1:0.68 2:0.3125 3:0.70588235 4:0.14285714 \0A-0.8960939004407403 1:0.68 2:0.40625 3:0.35294118 4:0.14285714 \0A-1 1:0.68 2:0.4375 3:0.45588235 4:0.14285714 \0A0.06760220585767736 1:0.68 2:0.65625 3:0.64705882 4:0.14285714 \0A0.162399393019196 1:0.68 2:0.6875 3:0.54411765 4:0.14285714 \0A0.3309947291828618 1:0.68 2:0.75 3:0.35294118 4:0.14285714 \0A1 1:0.68 2:0.75 3:0.64705882 4:0.14285714 \0A-1 1:0.7 2:0.2 3:0.35714286 4:0.14285714 \0A-0.3113899174485042 1:0.7 2:0.2 3:0.5 4:0.14285714 \0A0.710057180189838 1:0.7 2:0.2 3:0.75714286 4:0.14285714 \0A1 1:0.7 2:0.36666667 3:0.5 4:0.14285714 \0A1 1:0.7 2:0.4 3:0.44285714 4:0.14285714 \0A1 1:0.7 2:0.5 3:0.44285714 4:0.14285714 \0A-1 1:0.7 2:0.6 3:0.44285714 4:0.14285714 \0A1 1:0.7 2:0.66666667 3:0.75714286 4:0.14285714 \0A-1 1:0.7 2:0.8 3:0.44285714 4:0.14285714 \0A0.7188623512484075 1:0.7 2:0.8 3:0.7 4:0.14285714 \0A-0.7518566797217892 1:0.73 2:0.18518519 3:0.30136986 4:0.14285714 \0A1 1:0.73 2:0.25925926 3:0.49315068 4:0.14285714 \0A-1 1:0.73 2:0.33333333 3:0.64383562 4:0.14285714 \0A0.06042968540423314 1:0.73 2:0.40740741 3:0.75342466 4:0.14285714 \0A1 1:0.73 2:0.55555556 3:0.49315068 4:0.14285714 \0A-1 1:0.73 2:0.55555556 3:0.64383562 4:0.14285714 \0A1 1:0.73 2:0.59259259 3:0.75342466 4:0.14285714 \0A-1 1:0.75 2:0.2 3:0.49333333 4:0.14285714 \0A-0.6683909180333789 1:0.75 2:0.36 3:0.8 4:0.14285714 \0A-1 1:0.75 2:0.48 3:0.4 4:0.14285714 \0A-1 1:0.75 2:0.72 3:0.65333333 4:0.14285714 \0A-0.4874925451625081 1:0.75 2:0.76 3:0.2 4:0.14285714 \0A0.8632010530330415 1:0.78 2:0.18181818 3:0.3974359 4:0.14285714 \0A-0.8522146967960993 1:0.78 2:0.18181818 3:0.6025641 4:0.14285714 \0A-0.3865716017775887 1:0.78 2:0.27272727 3:0.29487179 4:0.14285714 \0A-1 1:0.78 2:0.27272727 3:0.65384615 4:0.14285714 \0A1 1:0.78 2:0.31818182 3:0.75641026 4:0.14285714 \0A0.7293614336893464 1:0.78 2:0.40909091 3:0.20512821 4:0.14285714 \0A0.05514930970405035 1:0.78 2:0.45454545 3:0.55128205 4:0.14285714 \0A-1 1:0.78 2:0.5 3:0.44871795 4:0.14285714 \0A1 1:0.78 2:0.5 3:0.5 4:0.14285714 \0A0.3051973680621083 1:0.78 2:0.5 3:0.65384615 4:0.14285714 \0A1 1:0.78 2:0.59090909 3:0.5 4:0.14285714 \0A1 1:0.78 2:0.59090909 3:0.75641026 4:0.14285714 \0A-1 1:0.78 2:0.68181818 3:0.34615385 4:0.14285714 \0A-1 1:0.78 2:0.77272727 3:0.5 4:0.14285714 \0A-1 1:0.8 2:0.25 3:0.3 4:0.14285714 \0A1 1:0.8 2:0.3 3:0.35 4:0.14285714 \0A-1 1:0.8 2:0.3 3:0.55 4:0.14285714 \0A-1 1:0.8 2:0.3 3:0.65 4:0.14285714 \0A1 1:0.8 2:0.35 3:0.75 4:0.14285714 \0A0.248332642183202 1:0.8 2:0.4 3:0.2 4:0.14285714 \0A-1 1:0.8 2:0.4 3:0.3 4:0.14285714 \0A1 1:0.8 2:0.4 3:0.5 4:0.14285714 \0A-0.009407532520902937 1:0.8 2:0.45 3:0.7 4:0.14285714 \0A-1 1:0.8 2:0.5 3:0.55 4:0.14285714 \0A-0.7145209728416626 1:0.8 2:0.6 3:0.6 4:0.14285714 \0A1 1:0.8 2:0.65 3:0.45 4:0.14285714 \0A-1 1:0.8 2:0.7 3:0.65 4:0.14285714 \0A-0.6890954729149655 1:0.8 2:0.75 3:0.65 4:0.14285714 \0A-1 1:0.2 2:0.2 3:0.8 4:0.28571429 \0A-0.009153621697841157 1:0.2 2:0.25 3:0.6 4:0.28571429 \0A-0.1313784341058974 1:0.2 2:0.3 3:0.2 4:0.28571429 \0A-0.002479834842920828 1:0.2 2:0.35 3:0.43333333 4:0.28571429 \0A0.4565628345544172 1:0.2 2:0.45 3:0.2 4:0.28571429 \0A0.1383189806349542 1:0.2 2:0.55 3:0.5 4:0.28571429 \0A-0.5164845584433336 1:0.2 2:0.6 3:0.7 4:0.28571429 \0A0.0707607192624703 1:0.2 2:0.7 3:0.2 4:0.28571429 \0A1 1:0.2 2:0.75 3:0.26666667 4:0.28571429 \0A-1 1:0.2 2:0.8 3:0.2 4:0.28571429 \0A-1 1:0.2 2:0.8 3:0.26666667 4:0.28571429 \0A-0.2414697052861657 1:0.2 2:0.8 3:0.3 4:0.28571429 \0A-1 1:0.2 2:0.8 3:0.36666667 4:0.28571429 \0A-0.4444893268470444 1:0.2 2:0.8 3:0.53333333 4:0.28571429 \0A-0.1956618504441442 1:0.2 2:0.8 3:0.8 4:0.28571429 \0A-0.009805760377205651 1:0.22666667 2:0.19827586 3:0.5 4:0.28571429 \0A-1 1:0.22666667 2:0.30172414 3:0.29411765 4:0.28571429 \0A0.6454748818995671 1:0.22666667 2:0.5 3:0.41176471 4:0.28571429 \0A-1 1:0.22666667 2:0.64655172 3:0.41176471 4:0.28571429 \0A-0.6997076741276671 1:0.25333333 2:0.34821429 3:0.21052632 4:0.28571429 \0A1 1:0.25333333 2:0.40178571 3:0.26315789 4:0.28571429 \0A-0.04834090877712734 1:0.25333333 2:0.5 3:0.28947368 4:0.28571429 \0A-0.02232260439728159 1:0.25333333 2:0.65178571 3:0.26315789 4:0.28571429 \0A-0.3405173591588186 1:0.27333333 2:0.20183486 3:0.80487805 4:0.28571429 \0A-0.3266420577485906 1:0.27333333 2:0.40366972 3:0.34146341 4:0.28571429 \0A-0.4141392763783503 1:0.27333333 2:0.44954128 3:0.80487805 4:0.28571429 \0A0.8758516620226078 1:0.27333333 2:0.75229358 3:0.29268293 4:0.28571429 \0A1 1:0.27333333 2:0.79816514 3:0.48780488 4:0.28571429 \0A1 1:0.3 2:0.4952381 3:0.48888889 4:0.28571429 \0A-0.0215540361498599 1:0.3 2:0.55238095 3:0.31111111 4:0.28571429 \0A-1 1:0.3 2:0.6 3:0.2 4:0.28571429 \0A-0.2092678511592358 1:0.3 2:0.7047619 3:0.44444444 4:0.28571429 \0A1 1:0.32666667 2:0.3960396 3:0.20408163 4:0.28571429 \0A-0.2062452460202211 1:0.32666667 2:0.55445545 3:0.55102041 4:0.28571429 \0A-0.9161086752999634 1:0.32666667 2:0.65346535 3:0.59183673 4:0.28571429 \0A0.1806946055210689 1:0.37333333 2:0.5 3:0.25 4:0.28571429 \0A-0.00868962573219461 1:0.4 2:0.2 3:0.2 4:0.28571429 \0A-0.2393378447072121 1:0.4 2:0.2 3:0.65 4:0.28571429 \0A1 1:0.4 2:0.44444444 3:0.6 4:0.28571429 \0A1 1:0.4 2:0.54444444 3:0.4 4:0.28571429 \0A-0.002414819981314899 1:0.4 2:0.8 3:0.8 4:0.28571429 \0A-0.020036072540305 1:0.42666667 2:0.30232558 3:0.59375 4:0.28571429 \0A0.03398685675855961 1:0.42666667 2:0.80232558 3:0.5 4:0.28571429 \0A0.2112501195531246 1:0.45333333 2:0.30487805 3:0.39705882 4:0.28571429 \0A-0.3883166443521887 1:0.45333333 2:0.69512195 3:0.29411765 4:0.28571429 \0A-0.7831384196100754 1:0.45333333 2:0.80487805 3:0.35294118 4:0.28571429 \0A1 1:0.47333333 2:0.4556962 3:0.29577465 4:0.28571429 \0A0.3378134201057068 1:0.47333333 2:0.49367089 3:0.45070423 4:0.28571429 \0A0.04082363374500229 1:0.47333333 2:0.59493671 3:0.54929577 4:0.28571429 \0A-0.1532313631608456 1:0.5 2:0.2 3:0.25333333 4:0.28571429 \0A0.1380902769140323 1:0.5 2:0.65333333 3:0.74666667 4:0.28571429 \0A-0.01975576171928858 1:0.52666667 2:0.1971831 3:0.69620253 4:0.28571429 \0A-1 1:0.52666667 2:0.45070423 3:0.20253165 4:0.28571429 \0A-1 1:0.52666667 2:0.49295775 3:0.25316456 4:0.28571429 \0A-0.3103618655012569 1:0.52666667 2:0.49295775 3:0.4556962 4:0.28571429 \0A1 1:0.52666667 2:0.70422535 3:0.5443038 4:0.28571429 \0A0.9381322913971272 1:0.55333333 2:0.34328358 3:0.4939759 4:0.28571429 \0A-0.0994378374125251 1:0.55333333 2:0.40298507 3:0.20481928 4:0.28571429 \0A-0.05038129662857919 1:0.55333333 2:0.40298507 3:0.34939759 4:0.28571429 \0A-0.01254952373562108 1:0.55333333 2:0.44776119 3:0.20481928 4:0.28571429 \0A-1 1:0.55333333 2:0.49253731 3:0.4939759 4:0.28571429 \0A-0.2830598088943482 1:0.55333333 2:0.55223881 3:0.39759036 4:0.28571429 \0A-1 1:0.55333333 2:0.74626866 3:0.60240964 4:0.28571429 \0A1 1:0.57333333 2:0.453125 3:0.75581395 4:0.28571429 \0A1 1:0.57333333 2:0.546875 3:0.25581395 4:0.28571429 \0A1 1:0.57333333 2:0.796875 3:0.60465116 4:0.28571429 \0A1 1:0.6 2:0.55 3:0.5 4:0.28571429 \0A-0.2212560033820343 1:0.6 2:0.75 3:0.75555556 4:0.28571429 \0A-0.1960173777076425 1:0.6 2:0.8 3:0.75555556 4:0.28571429 \0A-1 1:0.62666667 2:0.44642857 3:0.44680851 4:0.28571429 \0A-0.9474008171313877 1:0.62666667 2:0.55357143 3:0.75531915 4:0.28571429 \0A0.320042701644004 1:0.62666667 2:0.64285714 3:0.55319149 4:0.28571429 \0A0.5572991210357569 1:0.62666667 2:0.80357143 3:0.25531915 4:0.28571429 \0A-0.01674810004851782 1:0.62666667 2:0.80357143 3:0.59574468 4:0.28571429 \0A-0.9665533284427191 1:0.65333333 2:0.25 3:0.79591837 4:0.28571429 \0A0.07370729259835491 1:0.65333333 2:0.34615385 3:0.29591837 4:0.28571429 \0A-0.634320632020838 1:0.65333333 2:0.44230769 3:0.5 4:0.28571429 \0A-1 1:0.65333333 2:0.55769231 3:0.79591837 4:0.28571429 \0A0.6678250558289185 1:0.67333333 2:0.20408163 3:0.75247525 4:0.28571429 \0A1 1:0.67333333 2:0.30612245 3:0.2970297 4:0.28571429 \0A1 1:0.67333333 2:0.55102041 3:0.2970297 4:0.28571429 \0A1 1:0.67333333 2:0.55102041 3:0.7029703 4:0.28571429 \0A-1 1:0.67333333 2:0.69387755 3:0.65346535 4:0.28571429 \0A1 1:0.67333333 2:0.75510204 3:0.6039604 4:0.28571429 \0A-1 1:0.67333333 2:0.75510204 3:0.65346535 4:0.28571429 \0A-0.03088693046397993 1:0.67333333 2:0.75510204 3:0.8019802 4:0.28571429 \0A-1 1:0.7 2:0.4 3:0.4 4:0.28571429 \0A-0.2665795502294132 1:0.7 2:0.48888889 3:0.4 4:0.28571429 \0A-1 1:0.72666667 2:0.19512195 3:0.79816514 4:0.28571429 \0A1 1:0.72666667 2:0.29268293 3:0.69724771 4:0.28571429 \0A0.5562062357584229 1:0.72666667 2:0.34146341 3:0.55045872 4:0.28571429 \0A0.3350906470285724 1:0.72666667 2:0.3902439 3:0.69724771 4:0.28571429 \0A0.08458464490745297 1:0.72666667 2:0.48780488 3:0.30275229 4:0.28571429 \0A0.1350030748690175 1:0.72666667 2:0.48780488 3:0.75229358 4:0.28571429 \0A-0.1355959759370596 1:0.72666667 2:0.65853659 3:0.40366972 4:0.28571429 \0A1 1:0.75333333 2:0.24324324 3:0.3539823 4:0.28571429 \0A1 1:0.75333333 2:0.2972973 3:0.39823009 4:0.28571429 \0A-0.01076458780598754 1:0.75333333 2:0.35135135 3:0.3539823 4:0.28571429 \0A0.3325062184578695 1:0.75333333 2:0.40540541 3:0.60176991 4:0.28571429 \0A0.02056886229053846 1:0.75333333 2:0.40540541 3:0.75221239 4:0.28571429 \0A-1 1:0.75333333 2:0.54054054 3:0.79646018 4:0.28571429 \0A-1 1:0.75333333 2:0.7027027 3:0.45132743 4:0.28571429 \0A0.7225386657005112 1:0.77333333 2:0.26470588 3:0.75 4:0.28571429 \0A-1 1:0.77333333 2:0.29411765 3:0.39655172 4:0.28571429 \0A1 1:0.77333333 2:0.35294118 3:0.39655172 4:0.28571429 \0A1 1:0.77333333 2:0.55882353 3:0.5 4:0.28571429 \0A-0.0398919154630647 1:0.77333333 2:0.55882353 3:0.80172414 4:0.28571429 \0A1 1:0.77333333 2:0.70588235 3:0.39655172 4:0.28571429 \0A-0.3099185012768485 1:0.77333333 2:0.76470588 3:0.44827586 4:0.28571429 \0A0.1517874822132456 1:0.77333333 2:0.79411765 3:0.25 4:0.28571429 \0A-1 1:0.77333333 2:0.79411765 3:0.80172414 4:0.28571429 \0A0.8484813143651385 1:0.8 2:0.2 3:0.4 4:0.28571429 \0A0.07388690945811932 1:0.8 2:0.2 3:0.45 4:0.28571429 \0A-0.373632180136441 1:0.8 2:0.2 3:0.6 4:0.28571429 \0A0.7126087501272269 1:0.8 2:0.2 3:0.7 4:0.28571429 \0A0.5129897115547946 1:0.8 2:0.26666667 3:0.4 4:0.28571429 \0A-0.2368856415330242 1:0.8 2:0.3 3:0.8 4:0.28571429 \0A-0.9909047365137956 1:0.8 2:0.36666667 3:0.6 4:0.28571429 \0A-1 1:0.8 2:0.4 3:0.3 4:0.28571429 \0A-1 1:0.8 2:0.43333333 3:0.6 4:0.28571429 \0A1 1:0.8 2:0.5 3:0.5 4:0.28571429 \0A0.747915267823167 1:0.8 2:0.53333333 3:0.2 4:0.28571429 \0A-1 1:0.8 2:0.53333333 3:0.4 4:0.28571429 \0A0.4684610012873625 1:0.8 2:0.6 3:0.5 4:0.28571429 \0A-1 1:0.8 2:0.66666667 3:0.4 4:0.28571429 \0A1 1:0.8 2:0.7 3:0.45 4:0.28571429 \0A1 1:0.8 2:0.7 3:0.75 4:0.28571429 \0A1 1:0.8 2:0.8 3:0.45 4:0.28571429 \0A0.7667760031688282 1:0.8 2:0.8 3:0.75 4:0.28571429 \0A0.4366790463419795 1:0.2 2:0.25 3:0.8 4:0.42857143 \0A0.3572713472673389 1:0.2 2:0.35 3:0.8 4:0.42857143 \0A0.05157729569715787 1:0.2 2:0.7 3:0.35 4:0.42857143 \0A0.1437015156792416 1:0.2 2:0.7 3:0.8 4:0.42857143 \0A0.1057391078643923 1:0.2 2:0.75 3:0.2 4:0.42857143 \0A1 1:0.2 2:0.75 3:0.3 4:0.42857143 \0A0.4022295227494483 1:0.2 2:0.75 3:0.7 4:0.42857143 \0A-0.2603521454922373 1:0.2 2:0.8 3:0.45 4:0.42857143 \0A-1 1:0.2 2:0.8 3:0.8 4:0.42857143 \0A1 1:0.225 2:0.70322581 3:0.71111111 4:0.42857143 \0A0.2930549178660014 1:0.25 2:0.2 3:0.3 4:0.42857143 \0A0.06075958724395708 1:0.25 2:0.3 3:0.8 4:0.42857143 \0A0.02473138698924355 1:0.275 2:0.35172414 3:0.2 4:0.42857143 \0A0.9258466140296825 1:0.275 2:0.75172414 3:0.25454545 4:0.42857143 \0A-0.3334464080350779 1:0.3 2:0.6 3:0.3 4:0.42857143 \0A0.3738127282221404 1:0.325 2:0.25185185 3:0.70769231 4:0.42857143 \0A0.4720824546089779 1:0.325 2:0.8 3:0.75384615 4:0.42857143 \0A-0.5059930574106354 1:0.35 2:0.5 3:0.65714286 4:0.42857143 \0A-0.570070026957038 1:0.375 2:0.352 3:0.34666667 4:0.42857143 \0A-0.9127675552221619 1:0.375 2:0.552 3:0.34666667 4:0.42857143 \0A0.05084456245536301 1:0.375 2:0.752 3:0.70666667 4:0.42857143 \0A0.2253435845961116 1:0.4 2:0.2 3:0.75 4:0.42857143 \0A-1 1:0.4 2:0.35 3:0.55 4:0.42857143 \0A0.02857420325203806 1:0.425 2:0.70434783 3:0.44705882 4:0.42857143 \0A0.537774891139509 1:0.45 2:0.2 3:0.5 4:0.42857143 \0A-0.2396129229583656 1:0.45 2:0.5 3:0.44444444 4:0.42857143 \0A1 1:0.45 2:0.75454545 3:0.34444444 4:0.42857143 \0A-0.01947665695048613 1:0.475 2:0.44761905 3:0.65263158 4:0.42857143 \0A-0.06355054168217732 1:0.475 2:0.75238095 3:0.65263158 4:0.42857143 \0A-0.1023698115433003 1:0.475 2:0.8 3:0.2 4:0.42857143 \0A-0.260002898212768 1:0.55 2:0.4 3:0.7 4:0.42857143 \0A0.006775525698276211 1:0.55 2:0.44444444 3:0.54545455 4:0.42857143 \0A-1 1:0.55 2:0.75555556 3:0.5 4:0.42857143 \0A-0.8480186571824878 1:0.575 2:0.49411765 3:0.4 4:0.42857143 \0A1 1:0.575 2:0.49411765 3:0.74782609 4:0.42857143 \0A1 1:0.575 2:0.70588235 3:0.6 4:0.42857143 \0A0.1938086729646508 1:0.6 2:0.3 3:0.75 4:0.42857143 \0A1 1:0.6 2:0.5 3:0.35 4:0.42857143 \0A0.002158969435392604 1:0.6 2:0.65 3:0.6 4:0.42857143 \0A-0.86397623646373 1:0.625 2:0.2 3:0.8 4:0.42857143 \0A1 1:0.625 2:0.25333333 3:0.752 4:0.42857143 \0A-0.5026859450455132 1:0.625 2:0.4 3:0.648 4:0.42857143 \0A-1 1:0.625 2:0.74666667 3:0.448 4:0.42857143 \0A0.004427053303566669 1:0.65 2:0.2 3:0.54615385 4:0.42857143 \0A1 1:0.65 2:0.4 3:0.35384615 4:0.42857143 \0A0.1691176442758703 1:0.65 2:0.6 3:0.54615385 4:0.42857143 \0A0.8639009881525169 1:0.65 2:0.65714286 3:0.25384615 4:0.42857143 \0A1 1:0.675 2:0.24615385 3:0.74814815 4:0.42857143 \0A0.001828468693192025 1:0.675 2:0.30769231 3:0.25185185 4:0.42857143 \0A-1 1:0.675 2:0.30769231 3:0.45185185 4:0.42857143 \0A-1 1:0.675 2:0.30769231 3:0.7037037 4:0.42857143 \0A-1 1:0.675 2:0.44615385 3:0.7037037 4:0.42857143 \0A-1 1:0.675 2:0.6 3:0.4 4:0.42857143 \0A-0.7965613850269518 1:0.675 2:0.70769231 3:0.2 4:0.42857143 \0A1 1:0.675 2:0.70769231 3:0.4962963 4:0.42857143 \0A-0.4252722687880143 1:0.675 2:0.8 3:0.74814815 4:0.42857143 \0A0.1450719021423953 1:0.7 2:0.2 3:0.35 4:0.42857143 \0A-1 1:0.7 2:0.3 3:0.8 4:0.42857143 \0A-0.09386434943975405 1:0.7 2:0.7 3:0.45 4:0.42857143 \0A1 1:0.7 2:0.8 3:0.3 4:0.42857143 \0A-1 1:0.7 2:0.8 3:0.5 4:0.42857143 \0A0.6704062739379355 1:0.7 2:0.8 3:0.7 4:0.42857143 \0A-1 1:0.725 2:0.2 3:0.49655172 4:0.42857143 \0A-1 1:0.725 2:0.25454545 3:0.4 4:0.42857143 \0A1 1:0.725 2:0.4 3:0.6 4:0.42857143 \0A-1 1:0.725 2:0.54545455 3:0.30344828 4:0.42857143 \0A-1 1:0.725 2:0.65454545 3:0.6 4:0.42857143 \0A1 1:0.725 2:0.74545455 3:0.6 4:0.42857143 \0A-0.9851987897531498 1:0.725 2:0.8 3:0.2 4:0.42857143 \0A1 1:0.75 2:0.4 3:0.75333333 4:0.42857143 \0A0.6146634558397266 1:0.75 2:0.6 3:0.7 4:0.42857143 \0A-0.5077443792130245 1:0.75 2:0.66 3:0.65333333 4:0.42857143 \0A1 1:0.75 2:0.66 3:0.75333333 4:0.42857143 \0A0.5774658285198147 1:0.75 2:0.7 3:0.5 4:0.42857143 \0A0.03261634404365939 1:0.75 2:0.8 3:0.25333333 4:0.42857143 \0A0.1454829506812746 1:0.75 2:0.8 3:0.54666667 4:0.42857143 \0A1 1:0.75 2:0.8 3:0.7 4:0.42857143 \0A1 1:0.775 2:0.2 3:0.70322581 4:0.42857143 \0A-0.8677231718298125 1:0.775 2:0.24444444 3:0.6 4:0.42857143 \0A-0.1952018655833204 1:0.775 2:0.35555556 3:0.4 4:0.42857143 \0A-0.3890047346408281 1:0.775 2:0.55555556 3:0.4 4:0.42857143 \0A-0.01748297460381265 1:0.775 2:0.55555556 3:0.8 4:0.42857143 \0A0.02535137763971316 1:0.775 2:0.75555556 3:0.3483871 4:0.42857143 \0A-1 1:0.775 2:0.75555556 3:0.70322581 4:0.42857143 \0A0.04041888343494857 1:0.8 2:0.2 3:0.5 4:0.42857143 \0A-1 1:0.8 2:0.25 3:0.3 4:0.42857143 \0A1 1:0.8 2:0.25 3:0.5 4:0.42857143 \0A-1 1:0.8 2:0.3 3:0.6 4:0.42857143 \0A-0.004157921718993903 1:0.8 2:0.4 3:0.35 4:0.42857143 \0A0.8317551307043267 1:0.8 2:0.45 3:0.5 4:0.42857143 \0A-0.004684526955486306 1:0.8 2:0.5 3:0.35 4:0.42857143 \0A-0.03411606823771664 1:0.8 2:0.55 3:0.6 4:0.42857143 \0A0.08549004309450049 1:0.8 2:0.6 3:0.65 4:0.42857143 \0A-1 1:0.8 2:0.7 3:0.6 4:0.42857143 \0A-0.5603259898836467 1:0.8 2:0.8 3:0.45 4:0.42857143 \0A-0.248683869085667 1:0.2 2:0.2 3:0.8 4:0.57142857 \0A-0.4435068371696607 1:0.2 2:0.3 3:0.5 4:0.57142857 \0A-0.02614612852331612 1:0.2 2:0.35 3:0.6 4:0.57142857 \0A0.549513470453233 1:0.2 2:0.45 3:0.44 4:0.57142857 \0A0.1310224869014791 1:0.2 2:0.5 3:0.2 4:0.57142857 \0A-0.2518864135271009 1:0.2 2:0.6 3:0.26 4:0.57142857 \0A0.5732588312696995 1:0.2 2:0.7 3:0.2 4:0.57142857 \0A-1 1:0.2 2:0.8 3:0.2 4:0.57142857 \0A-0.1316570467674567 1:0.2 2:0.8 3:0.7 4:0.57142857 \0A-0.07832078323597566 1:0.224 2:0.44845361 3:0.69642857 4:0.57142857 \0A0.1545579400717304 1:0.224 2:0.70103093 3:0.80357143 4:0.57142857 \0A-0.5516831168581388 1:0.252 2:0.59893048 3:0.55555556 4:0.57142857 \0A-1 1:0.252 2:0.65240642 3:0.3968254 4:0.57142857 \0A-0.1051219257679478 1:0.276 2:0.49723757 3:0.65217391 4:0.57142857 \0A-0.04656017637359811 1:0.276 2:0.60220994 3:0.75362319 4:0.57142857 \0A0.2267013047439382 1:0.276 2:0.80110497 3:0.5942029 4:0.57142857 \0A0.02555419951336271 1:0.3 2:0.2 3:0.70666667 4:0.57142857 \0A1 1:0.3 2:0.70285714 3:0.45333333 4:0.57142857 \0A-0.004030793361216982 1:0.3 2:0.8 3:0.2 4:0.57142857 \0A-0.2019590919288011 1:0.3 2:0.8 3:0.34666667 4:0.57142857 \0A-0.2702371300494925 1:0.324 2:0.59763314 3:0.19753086 4:0.57142857 \0A0.02911726719890843 1:0.352 2:0.25308642 3:0.60227273 4:0.57142857 \0A1 1:0.352 2:0.5 3:0.54545455 4:0.57142857 